{"learner":{"attributes":{},"feature_names":[],"feature_types":[],"gradient_booster":{"model":{"gbtree_model_param":{"num_parallel_tree":"1","num_trees":"1500"},"iteration_indptr":[0,2,4,6,8,10,12,14,16,18,20,22,24,26,28,30,32,34,36,38,40,42,44,46,48,50,52,54,56,58,60,62,64,66,68,70,72,74,76,78,80,82,84,86,88,90,92,94,96,98,100,102,104,106,108,110,112,114,116,118,120,122,124,126,128,130,132,134,136,138,140,142,144,146,148,150,152,154,156,158,160,162,164,166,168,170,172,174,176,178,180,182,184,186,188,190,192,194,196,198,200,202,204,206,208,210,212,214,216,218,220,222,224,226,228,230,232,234,236,238,240,242,244,246,248,250,252,254,256,258,260,262,264,266,268,270,272,274,276,278,280,282,284,286,288,290,292,294,296,298,300,302,304,306,308,310,312,314,316,318,320,322,324,326,328,330,332,334,336,338,340,342,344,346,348,350,352,354,356,358,360,362,364,366,368,370,372,374,376,378,380,382,384,386,388,390,392,394,396,398,400,402,404,406,408,410,412,414,416,418,420,422,424,426,428,430,432,434,436,438,440,442,444,446,448,450,452,454,456,458,460,462,464,466,468,470,472,474,476,478,480,482,484,486,488,490,492,494,496,498,500,502,504,506,508,510,512,514,516,518,520,522,524,526,528,530,532,534,536,538,540,542,544,546,548,550,552,554,556,558,560,562,564,566,568,570,572,574,576,578,580,582,584,586,588,590,592,594,596,598,600,602,604,606,608,610,612,614,616,618,620,622,624,626,628,630,632,634,636,638,640,642,644,646,648,650,652,654,656,658,660,662,664,666,668,670,672,674,676,678,680,682,684,686,688,690,692,694,696,698,700,702,704,706,708,710,712,714,716,718,720,722,724,726,728,730,732,734,736,738,740,742,744,746,748,750,752,754,756,758,760,762,764,766,768,770,772,774,776,778,780,782,784,786,788,790,792,794,796,798,800,802,804,806,808,810,812,814,816,818,820,822,824,826,828,830,832,834,836,838,840,842,844,846,848,850,852,854,856,858,860,862,864,866,868,870,872,874,876,878,880,882,884,886,888,890,892,894,896,898,900,902,904,906,908,910,912,914,916,918,920,922,924,926,928,930,932,934,936,938,940,942,944,946,948,950,952,954,956,958,960,962,964,966,968,970,972,974,976,978,980,982,984,986,988,990,992,994,996,998,1000,1002,1004,1006,1008,1010,1012,1014,1016,1018,1020,1022,1024,1026,1028,1030,1032,1034,1036,1038,1040,1042,1044,1046,1048,1050,1052,1054,1056,1058,1060,1062,1064,1066,1068,1070,1072,1074,1076,1078,1080,1082,1084,1086,1088,1090,1092,1094,1096,1098,1100,1102,1104,1106,1108,1110,1112,1114,1116,1118,1120,1122,1124,1126,1128,1130,1132,1134,1136,1138,1140,1142,1144,1146,1148,1150,1152,1154,1156,1158,1160,1162,1164,1166,1168,1170,1172,1174,1176,1178,1180,1182,1184,1186,1188,1190,1192,1194,1196,1198,1200,1202,1204,1206,1208,1210,1212,1214,1216,1218,1220,1222,1224,1226,1228,1230,1232,1234,1236,1238,1240,1242,1244,1246,1248,1250,1252,1254,1256,1258,1260,1262,1264,1266,1268,1270,1272,1274,1276,1278,1280,1282,1284,1286,1288,1290,1292,1294,1296,1298,1300,1302,1304,1306,1308,1310,1312,1314,1316,1318,1320,1322,1324,1326,1328,1330,1332,1334,1336,1338,1340,1342,1344,1346,1348,1350,1352,1354,1356,1358,1360,1362,1364,1366,1368,1370,1372,1374,1376,1378,1380,1382,1384,1386,1388,1390,1392,1394,1396,1398,1400,1402,1404,1406,1408,1410,1412,1414,1416,1418,1420,1422,1424,1426,1428,1430,1432,1434,1436,1438,1440,1442,1444,1446,1448,1450,1452,1454,1456,1458,1460,1462,1464,1466,1468,1470,1472,1474,1476,1478,1480,1482,1484,1486,1488,1490,1492,1494,1496,1498,1500],"tree_info":[0,1,0,1,0,1,0,1,0,1,0,1,0,1,0,1,0,1,0,1,0,1,0,1,0,1,0,1,0,1,0,1,0,1,0,1,0,1,0,1,0,1,0,1,0,1,0,1,0,1,0,1,0,1,0,1,0,1,0,1,0,1,0,1,0,1,0,1,0,1,0,1,0,1,0,1,0,1,0,1,0,1,0,1,0,1,0,1,0,1,0,1,0,1,0,1,0,1,0,1,0,1,0,1,0,1,0,1,0,1,0,1,0,1,0,1,0,1,0,1,0,1,0,1,0,1,0,1,0,1,0,1,0,1,0,1,0,1,0,1,0,1,0,1,0,1,0,1,0,1,0,1,0,1,0,1,0,1,0,1,0,1,0,1,0,1,0,1,0,1,0,1,0,1,0,1,0,1,0,1,0,1,0,1,0,1,0,1,0,1,0,1,0,1,0,1,0,1,0,1,0,1,0,1,0,1,0,1,0,1,0,1,0,1,0,1,0,1,0,1,0,1,0,1,0,1,0,1,0,1,0,1,0,1,0,1,0,1,0,1,0,1,0,1,0,1,0,1,0,1,0,1,0,1,0,1,0,1,0,1,0,1,0,1,0,1,0,1,0,1,0,1,0,1,0,1,0,1,0,1,0,1,0,1,0,1,0,1,0,1,0,1,0,1,0,1,0,1,0,1,0,1,0,1,0,1,0,1,0,1,0,1,0,1,0,1,0,1,0,1,0,1,0,1,0,1,0,1,0,1,0,1,0,1,0,1,0,1,0,1,0,1,0,1,0,1,0,1,0,1,0,1,0,1,0,1,0,1,0,1,0,1,0,1,0,1,0,1,0,1,0,1,0,1,0,1,0,1,0,1,0,1,0,1,0,1,0,1,0,1,0,1,0,1,0,1,0,1,0,1,0,1,0,1,0,1,0,1,0,1,0,1,0,1,0,1,0,1,0,1,0,1,0,1,0,1,0,1,0,1,0,1,0,1,0,1,0,1,0,1,0,1,0,1,0,1,0,1,0,1,0,1,0,1,0,1,0,1,0,1,0,1,0,1,0,1,0,1,0,1,0,1,0,1,0,1,0,1,0,1,0,1,0,1,0,1,0,1,0,1,0,1,0,1,0,1,0,1,0,1,0,1,0,1,0,1,0,1,0,1,0,1,0,1,0,1,0,1,0,1,0,1,0,1,0,1,0,1,0,1,0,1,0,1,0,1,0,1,0,1,0,1,0,1,0,1,0,1,0,1,0,1,0,1,0,1,0,1,0,1,0,1,0,1,0,1,0,1,0,1,0,1,0,1,0,1,0,1,0,1,0,1,0,1,0,1,0,1,0,1,0,1,0,1,0,1,0,1,0,1,0,1,0,1,0,1,0,1,0,1,0,1,0,1,0,1,0,1,0,1,0,1,0,1,0,1,0,1,0,1,0,1,0,1,0,1,0,1,0,1,0,1,0,1,0,1,0,1,0,1,0,1,0,1,0,1,0,1,0,1,0,1,0,1,0,1,0,1,0,1,0,1,0,1,0,1,0,1,0,1,0,1,0,1,0,1,0,1,0,1,0,1,0,1,0,1,0,1,0,1,0,1,0,1,0,1,0,1,0,1,0,1,0,1,0,1,0,1,0,1,0,1,0,1,0,1,0,1,0,1,0,1,0,1,0,1,0,1,0,1,0,1,0,1,0,1,0,1,0,1,0,1,0,1,0,1,0,1,0,1,0,1,0,1,0,1,0,1,0,1,0,1,0,1,0,1,0,1,0,1,0,1,0,1,0,1,0,1,0,1,0,1,0,1,0,1,0,1,0,1,0,1,0,1,0,1,0,1,0,1,0,1,0,1,0,1,0,1,0,1,0,1,0,1,0,1,0,1,0,1,0,1,0,1,0,1,0,1,0,1,0,1,0,1,0,1,0,1,0,1,0,1,0,1,0,1,0,1,0,1,0,1,0,1,0,1,0,1,0,1,0,1,0,1,0,1,0,1,0,1,0,1,0,1,0,1,0,1,0,1,0,1,0,1,0,1,0,1,0,1,0,1,0,1,0,1,0,1,0,1,0,1,0,1,0,1,0,1,0,1,0,1,0,1,0,1,0,1,0,1,0,1,0,1,0,1,0,1,0,1,0,1,0,1,0,1,0,1,0,1,0,1,0,1,0,1,0,1,0,1,0,1,0,1,0,1,0,1,0,1,0,1,0,1,0,1,0,1,0,1,0,1,0,1,0,1,0,1,0,1,0,1,0,1,0,1,0,1,0,1,0,1,0,1,0,1,0,1,0,1,0,1,0,1,0,1,0,1,0,1,0,1,0,1,0,1,0,1,0,1,0,1,0,1,0,1,0,1,0,1,0,1,0,1,0,1,0,1,0,1,0,1,0,1,0,1,0,1,0,1,0,1,0,1,0,1,0,1,0,1,0,1,0,1,0,1,0,1,0,1,0,1,0,1,0,1,0,1,0,1,0,1,0,1,0,1,0,1,0,1,0,1,0,1,0,1,0,1,0,1,0,1,0,1,0,1,0,1,0,1,0,1,0,1,0,1,0,1,0,1,0,1,0,1,0,1,0,1,0,1,0,1,0,1,0,1,0,1,0,1,0,1,0,1,0,1,0,1,0,1,0,1,0,1,0,1,0,1,0,1,0,1,0,1,0,1,0,1,0,1,0,1,0,1,0,1,0,1,0,1,0,1,0,1,0,1,0,1,0,1,0,1,0,1,0,1,0,1,0,1,0,1,0,1,0,1,0,1,0,1,0,1,0,1,0,1,0,1,0,1,0,1,0,1,0,1,0,1,0,1,0,1,0,1,0,1,0,1,0,1,0,1,0,1,0,1,0,1,0,1,0,1,0,1,0,1,0,1,0,1,0,1,0,1,0,1,0,1,0,1,0,1,0,1,0,1,0,1,0,1,0,1,0,1,0,1,0,1,0,1,0,1,0,1,0,1,0,1,0,1,0,1,0,1,0,1,0,1,0,1,0,1,0,1,0,1,0,1,0,1,0,1,0,1,0,1,0,1,0,1,0,1,0,1,0,1,0,1,0,1,0,1,0,1,0,1,0,1,0,1,0,1,0,1,0,1,0,1,0,1,0,1,0,1,0,1,0,1,0,1,0,1,0,1,0,1,0,1,0,1,0,1,0,1,0,1,0,1,0,1,0,1,0,1,0,1,0,1,0,1,0,1,0,1,0,1,0,1,0,1,0,1,0,1,0,1,0,1,0,1,0,1,0,1,0,1,0,1,0,1,0,1,0,1,0,1,0,1,0,1,0,1,0,1,0,1,0,1,0,1,0,1,0,1,0,1,0,1,0,1,0,1,0,1,0,1,0,1,0,1,0,1,0,1,0,1,0,1,0,1,0,1,0,1,0,1,0,1,0,1],"trees":[{"base_weights":[-1.4693128E-1,-2.8508496E-1,1.7652836E-1,-1.2039604E-1,-4.703522E-1,-8.168121E-2,2.9211086E-1,-2.7438018E-3,2.1276594E-4,-6.419662E-3,-3.952E-3,8.7557605E-4,-2.6143792E-3,4.4739246E-3,1.9326755E-3],"categories":[],"categories_nodes":[],"categories_segments":[],"categories_sizes":[],"default_left":[0,0,0,0,0,0,0,0,0,0,0,0,0,0,0],"id":0,"left_children":[1,3,5,7,9,11,13,-1,-1,-1,-1,-1,-1,-1,-1],"loss_changes":[3.040346E2,1.4539151E2,6.0802208E1,5.508956E1,2.8674652E1,1.9203842E1,2.1508942E1,0E0,0E0,0E0,0E0,0E0,0E0,0E0,0E0],"parents":[2147483647,0,0,1,1,2,2,3,3,4,4,5,5,6,6],"right_children":[2,4,6,8,10,12,14,-1,-1,-1,-1,-1,-1,-1,-1],"split_conditions":[2E1,1.4E1,-2E0,1E1,7E0,-4.8E0,-6.3E0,-2.7438018E-3,2.1276594E-4,-6.419662E-3,-3.952E-3,8.7557605E-4,-2.6143792E-3,4.4739246E-3,1.9326755E-3],"split_indices":[28,80,77,51,51,25,25,0,0,0,0,0,0,0,0],"split_type":[0,0,0,0,0,0,0,0,0,0,0,0,0,0,0],"sum_hessian":[6.8015E3,4.766E3,2.0355E3,2.524E3,2.242E3,6.295E2,1.406E3,1.209E3,1.315E3,6.805E2,1.5615E3,3.245E2,3.05E2,5.455E2,8.605E2],"tree_param":{"num_deleted":"0","num_feature":"106","num_nodes":"15","size_leaf_vector":"1"}},{"base_weights":[1.4693128E-1,2.8508496E-1,-1.7652836E-1,1.2039604E-1,4.703522E-1,8.168121E-2,-2.9211086E-1,2.7438018E-3,-2.1276594E-4,6.419662E-3,3.952E-3,-8.7557605E-4,2.6143792E-3,-4.4739246E-3,-1.9326755E-3],"categories":[],"categories_nodes":[],"categories_segments":[],"categories_sizes":[],"default_left":[0,0,0,0,0,0,0,0,0,0,0,0,0,0,0],"id":1,"left_children":[1,3,5,7,9,11,13,-1,-1,-1,-1,-1,-1,-1,-1],"loss_changes":[3.040346E2,1.4539151E2,6.0802208E1,5.508956E1,2.8674652E1,1.9203842E1,2.1508942E1,0E0,0E0,0E0,0E0,0E0,0E0,0E0,0E0],"parents":[2147483647,0,0,1,1,2,2,3,3,4,4,5,5,6,6],"right_children":[2,4,6,8,10,12,14,-1,-1,-1,-1,-1,-1,-1,-1],"split_conditions":[2E1,1.4E1,-2E0,1E1,7E0,-4.8E0,-6.3E0,2.7438018E-3,-2.1276594E-4,6.419662E-3,3.952E-3,-8.7557605E-4,2.6143792E-3,-4.4739246E-3,-1.9326755E-3],"split_indices":[28,80,77,51,51,25,25,0,0,0,0,0,0,0,0],"split_type":[0,0,0,0,0,0,0,0,0,0,0,0,0,0,0],"sum_hessian":[6.8015E3,4.766E3,2.0355E3,2.524E3,2.242E3,6.295E2,1.406E3,1.209E3,1.315E3,6.805E2,1.5615E3,3.245E2,3.05E2,5.455E2,8.605E2],"tree_param":{"num_deleted":"0","num_feature":"106","num_nodes":"15","size_leaf_vector":"1"}},{"base_weights":[-1.4546487E-1,-2.8224048E-1,1.747668E-1,-1.1919355E-1,-4.656642E-1,-8.08675E-2,2.8919727E-1,-2.7164072E-3,2.106397E-4,-6.3558226E-3,-3.9125658E-3,8.668477E-4,-2.5883394E-3,4.429356E-3,1.913379E-3],"categories":[],"categories_nodes":[],"categories_segments":[],"categories_sizes":[],"default_left":[0,0,0,0,0,0,0,0,0,0,0,0,0,0,0],"id":2,"left_children":[1,3,5,7,9,11,13,-1,-1,-1,-1,-1,-1,-1,-1],"loss_changes":[2.9799463E2,1.4250775E2,5.9595318E1,5.3994736E1,2.8109344E1,1.8823046E1,2.1082977E1,0E0,0E0,0E0,0E0,0E0,0E0,0E0,0E0],"parents":[2147483647,0,0,1,1,2,2,3,3,4,4,5,5,6,6],"right_children":[2,4,6,8,10,12,14,-1,-1,-1,-1,-1,-1,-1,-1],"split_conditions":[2E1,1.4E1,-2E0,1E1,7E0,-4.8E0,-6.3E0,-2.7164072E-3,2.106397E-4,-6.3558226E-3,-3.9125658E-3,8.668477E-4,-2.5883394E-3,4.429356E-3,1.913379E-3],"split_indices":[28,80,77,51,51,25,25,0,0,0,0,0,0,0,0],"split_type":[0,0,0,0,0,0,0,0,0,0,0,0,0,0,0],"sum_hessian":[6.801422E3,4.7659385E3,2.0354835E3,2.5239907E3,2.2419475E3,6.294976E2,1.4059858E3,1.2089908E3,1.3149999E3,6.80472E2,1.5614756E3,3.2449976E2,3.049979E2,5.454891E2,8.6049677E2],"tree_param":{"num_deleted":"0","num_feature":"106","num_nodes":"15","size_leaf_vector":"1"}},{"base_weights":[1.454649E-1,2.8224054E-1,-1.7476676E-1,1.1919356E-1,4.656643E-1,8.086746E-2,-2.891972E-1,2.7164074E-3,-2.106397E-4,6.3558226E-3,3.912567E-3,-8.668477E-4,2.5883385E-3,-4.429356E-3,-1.9133778E-3],"categories":[],"categories_nodes":[],"categories_segments":[],"categories_sizes":[],"default_left":[0,0,0,0,0,0,0,0,0,0,0,0,0,0,0],"id":3,"left_children":[1,3,5,7,9,11,13,-1,-1,-1,-1,-1,-1,-1,-1],"loss_changes":[2.9799463E2,1.4250787E2,5.959529E1,5.399474E1,2.8109253E1,1.8823036E1,2.1082993E1,0E0,0E0,0E0,0E0,0E0,0E0,0E0,0E0],"parents":[2147483647,0,0,1,1,2,2,3,3,4,4,5,5,6,6],"right_children":[2,4,6,8,10,12,14,-1,-1,-1,-1,-1,-1,-1,-1],"split_conditions":[2E1,1.4E1,-2E0,1E1,7E0,-4.8E0,-6.3E0,2.7164074E-3,-2.106397E-4,6.3558226E-3,3.912567E-3,-8.668477E-4,2.5883385E-3,-4.429356E-3,-1.9133778E-3],"split_indices":[28,80,77,51,51,25,25,0,0,0,0,0,0,0,0],"split_type":[0,0,0,0,0,0,0,0,0,0,0,0,0,0,0],"sum_hessian":[6.801422E3,4.7659385E3,2.0354835E3,2.5239907E3,2.2419475E3,6.294977E2,1.4059858E3,1.208991E3,1.3149999E3,6.80472E2,1.5614756E3,3.2449976E2,3.049979E2,5.4548914E2,8.6049677E2],"tree_param":{"num_deleted":"0","num_feature":"106","num_nodes":"15","size_leaf_vector":"1"}},{"base_weights":[-1.4401634E-1,-2.7943152E-1,1.7302558E-1,-1.18003875E-1,-4.6104422E-1,-8.006234E-2,2.8631833E-1,-2.6893255E-3,2.085349E-4,-6.293128E-3,-3.8736453E-3,8.582085E-4,-2.5625909E-3,4.3854043E-3,1.8942875E-3],"categories":[],"categories_nodes":[],"categories_segments":[],"categories_sizes":[],"default_left":[0,0,0,0,0,0,0,0,0,0,0,0,0,0,0],"id":4,"left_children":[1,3,5,7,9,11,13,-1,-1,-1,-1,-1,-1,-1,-1],"loss_changes":[2.92082E2,1.3969406E2,5.841367E1,5.2922676E1,2.7562347E1,1.8450026E1,2.0667587E1,0E0,0E0,0E0,0E0,0E0,0E0,0E0,0E0],"parents":[2147483647,0,0,1,1,2,2,3,3,4,4,5,5,6,6],"right_children":[2,4,6,8,10,12,14,-1,-1,-1,-1,-1,-1,-1,-1],"split_conditions":[2E1,1.4E1,-2E0,1E1,7E0,-4.8E0,-6.3E0,-2.6893255E-3,2.085349E-4,-6.293128E-3,-3.8736453E-3,8.582085E-4,-2.5625909E-3,4.3854043E-3,1.8942875E-3],"split_indices":[28,80,77,51,51,25,25,0,0,0,0,0,0,0,0],"split_type":[0,0,0,0,0,0,0,0,0,0,0,0,0,0,0],"sum_hessian":[6.801191E3,4.7657563E3,2.0354348E3,2.5239636E3,2.2417925E3,6.294908E2,1.4059441E3,1.208964E3,1.3149998E3,6.803889E2,1.5614034E3,3.2449902E2,3.0499176E2,5.454567E2,8.604873E2],"tree_param":{"num_deleted":"0","num_feature":"106","num_nodes":"15","size_leaf_vector":"1"}},{"base_weights":[1.4401633E-1,2.7943152E-1,-1.7302556E-1,1.18003875E-1,4.610442E-1,8.00624E-2,-2.8631833E-1,2.6893255E-3,-2.085349E-4,6.293127E-3,3.873645E-3,-8.582082E-4,2.5625916E-3,-4.3854043E-3,-1.8942875E-3],"categories":[],"categories_nodes":[],"categories_segments":[],"categories_sizes":[],"default_left":[0,0,0,0,0,0,0,0,0,0,0,0,0,0,0],"id":5,"left_children":[1,3,5,7,9,11,13,-1,-1,-1,-1,-1,-1,-1,-1],"loss_changes":[2.9208197E2,1.3969403E2,5.841368E1,5.2922676E1,2.7562286E1,1.845003E1,2.0667587E1,0E0,0E0,0E0,0E0,0E0,0E0,0E0,0E0],"parents":[2147483647,0,0,1,1,2,2,3,3,4,4,5,5,6,6],"right_children":[2,4,6,8,10,12,14,-1,-1,-1,-1,-1,-1,-1,-1],"split_conditions":[2E1,1.4E1,-2E0,1E1,7E0,-4.8E0,-6.3E0,2.6893255E-3,-2.085349E-4,6.293127E-3,3.873645E-3,-8.582082E-4,2.5625916E-3,-4.3854043E-3,-1.8942875E-3],"split_indices":[28,80,77,51,51,25,25,0,0,0,0,0,0,0,0],"split_type":[0,0,0,0,0,0,0,0,0,0,0,0,0,0,0],"sum_hessian":[6.801191E3,4.765756E3,2.0354348E3,2.5239636E3,2.2417922E3,6.294907E2,1.4059441E3,1.208964E3,1.3149998E3,6.803889E2,1.5614034E3,3.24499E2,3.0499176E2,5.454567E2,8.604873E2],"tree_param":{"num_deleted":"0","num_feature":"106","num_nodes":"15","size_leaf_vector":"1"}},{"base_weights":[-1.425854E-1,-2.7665737E-1,1.7130433E-1,-1.1682688E-1,-4.5649043E-1,9.593314E-3,3.4529135E-1,-2.662552E-3,2.0645156E-4,-6.231541E-3,-3.835226E-3,1.7071841E-3,-1.7110308E-3,4.9053147E-3,2.504583E-3],"categories":[],"categories_nodes":[],"categories_segments":[],"categories_sizes":[],"default_left":[0,0,0,0,0,0,0,0,0,0,0,0,0,0,0],"id":6,"left_children":[1,3,5,7,9,11,13,-1,-1,-1,-1,-1,-1,-1,-1],"loss_changes":[2.8629358E2,1.36948E2,5.7290787E1,5.1872925E1,2.7032684E1,3.078715E1,1.338784E1,0E0,0E0,0E0,0E0,0E0,0E0,0E0,0E0],"parents":[2147483647,0,0,1,1,2,2,3,3,4,4,5,5,6,6],"right_children":[2,4,6,8,10,12,14,-1,-1,-1,-1,-1,-1,-1,-1],"split_conditions":[2E1,1.4E1,5.14E-1,1E1,7E0,-4.8E0,-6.1E0,-2.662552E-3,2.0645156E-4,-6.231541E-3,-3.835226E-3,1.7071841E-3,-1.7110308E-3,4.9053147E-3,2.504583E-3],"split_indices":[28,80,55,51,51,25,25,0,0,0,0,0,0,0,0],"split_type":[0,0,0,0,0,0,0,0,0,0,0,0,0,0,0],"sum_hessian":[6.8008115E3,4.7654565E3,2.0353547E3,2.5239192E3,2.2415376E3,1.0554392E3,9.7991547E2,1.2089198E3,1.3149995E3,6.802526E2,1.5612849E3,5.5796387E2,4.9747534E2,3.8543518E2,5.944803E2],"tree_param":{"num_deleted":"0","num_feature":"106","num_nodes":"15","size_leaf_vector":"1"}},{"base_weights":[1.4258543E-1,2.766574E-1,-1.713043E-1,1.168269E-1,4.564905E-1,-9.593325E-3,-3.4529126E-1,2.6625516E-3,-2.0645064E-4,6.231542E-3,3.835226E-3,-1.7071841E-3,1.7110306E-3,-4.9053147E-3,-2.504582E-3],"categories":[],"categories_nodes":[],"categories_segments":[],"categories_sizes":[],"default_left":[0,0,0,0,0,0,0,0,0,0,0,0,0,0,0],"id":7,"left_children":[1,3,5,7,9,11,13,-1,-1,-1,-1,-1,-1,-1,-1],"loss_changes":[2.8629358E2,1.36948E2,5.7290756E1,5.1872894E1,2.7032715E1,3.0787146E1,1.3387856E1,0E0,0E0,0E0,0E0,0E0,0E0,0E0,0E0],"parents":[2147483647,0,0,1,1,2,2,3,3,4,4,5,5,6,6],"right_children":[2,4,6,8,10,12,14,-1,-1,-1,-1,-1,-1,-1,-1],"split_conditions":[2E1,1.4E1,5.14E-1,1E1,7E0,-4.8E0,-6.1E0,2.6625516E-3,-2.0645064E-4,6.231542E-3,3.835226E-3,-1.7071841E-3,1.7110306E-3,-4.9053147E-3,-2.504582E-3],"split_indices":[28,80,55,51,51,25,25,0,0,0,0,0,0,0,0],"split_type":[0,0,0,0,0,0,0,0,0,0,0,0,0,0,0],"sum_hessian":[6.8008115E3,4.7654565E3,2.0353549E3,2.5239192E3,2.2415376E3,1.0554393E3,9.799155E2,1.2089197E3,1.3149995E3,6.802526E2,1.5612849E3,5.579639E2,4.9747537E2,3.8543518E2,5.9448035E2],"tree_param":{"num_deleted":"0","num_feature":"106","num_nodes":"15","size_leaf_vector":"1"}},{"base_weights":[-1.4117104E-1,-2.7391738E-1,1.6960311E-1,-1.1566246E-1,-4.5200127E-1,-7.937641E-2,2.810651E-1,-2.636083E-3,2.0438847E-4,-6.1710277E-3,-3.7972976E-3,8.3204394E-4,-2.5207037E-3,4.304226E-3,1.8601526E-3],"categories":[],"categories_nodes":[],"categories_segments":[],"categories_sizes":[],"default_left":[0,0,0,0,0,0,0,0,0,0,0,0,0,0,0],"id":8,"left_children":[1,3,5,7,9,11,13,-1,-1,-1,-1,-1,-1,-1,-1],"loss_changes":[2.8062823E2,1.3426743E2,5.6532024E1,5.084497E1,2.6519714E1,1.772241E1,1.9891296E1,0E0,0E0,0E0,0E0,0E0,0E0,0E0,0E0],"parents":[2147483647,0,0,1,1,2,2,3,3,4,4,5,5,6,6],"right_children":[2,4,6,8,10,12,14,-1,-1,-1,-1,-1,-1,-1,-1],"split_conditions":[2E1,1.4E1,-2E0,1E1,7E0,-4.8E0,-6.3E0,-2.636083E-3,2.0438847E-4,-6.1710277E-3,-3.7972976E-3,8.3204394E-4,-2.5207037E-3,4.304226E-3,1.8601526E-3],"split_indices":[28,80,77,51,51,25,25,0,0,0,0,0,0,0,0],"split_type":[0,0,0,0,0,0,0,0,0,0,0,0,0,0,0],"sum_hessian":[6.800301E3,4.7650435E3,2.0352571E3,2.5238577E3,2.241186E3,6.294666E2,1.4057904E3,1.2088586E3,1.314999E3,6.8006464E2,1.5611213E3,3.2449374E2,3.0497284E2,5.4533875E2,8.604517E2],"tree_param":{"num_deleted":"0","num_feature":"106","num_nodes":"15","size_leaf_vector":"1"}},{"base_weights":[1.4117102E-1,2.7391738E-1,-1.6960314E-1,1.1566246E-1,4.5200127E-1,7.9376325E-2,-2.810651E-1,2.6360818E-3,-2.0438759E-4,6.1710277E-3,3.7972976E-3,-8.320448E-4,2.5207028E-3,-4.304226E-3,-1.8601526E-3],"categories":[],"categories_nodes":[],"categories_segments":[],"categories_sizes":[],"default_left":[0,0,0,0,0,0,0,0,0,0,0,0,0,0,0],"id":9,"left_children":[1,3,5,7,9,11,13,-1,-1,-1,-1,-1,-1,-1,-1],"loss_changes":[2.8062823E2,1.3426749E2,5.6531994E1,5.0844913E1,2.6519714E1,1.772241E1,1.9891304E1,0E0,0E0,0E0,0E0,0E0,0E0,0E0,0E0],"parents":[2147483647,0,0,1,1,2,2,3,3,4,4,5,5,6,6],"right_children":[2,4,6,8,10,12,14,-1,-1,-1,-1,-1,-1,-1,-1],"split_conditions":[2E1,1.4E1,-2E0,1E1,7E0,-4.8E0,-6.3E0,2.6360818E-3,-2.0438759E-4,6.1710277E-3,3.7972976E-3,-8.320448E-4,2.5207028E-3,-4.304226E-3,-1.8601526E-3],"split_indices":[28,80,77,51,51,25,25,0,0,0,0,0,0,0,0],"split_type":[0,0,0,0,0,0,0,0,0,0,0,0,0,0,0],"sum_hessian":[6.800301E3,4.765044E3,2.0352571E3,2.523858E3,2.241186E3,6.294666E2,1.4057905E3,1.2088586E3,1.3149991E3,6.8006464E2,1.5611213E3,3.2449374E2,3.0497284E2,5.4533875E2,8.604517E2],"tree_param":{"num_deleted":"0","num_feature":"106","num_nodes":"15","size_leaf_vector":"1"}},{"base_weights":[-1.3977417E-1,-2.7121082E-1,1.6792059E-1,-1.1451039E-1,-4.4757506E-1,8.777412E-3,3.3916256E-1,-2.6099111E-3,2.0234566E-4,-3.5502545E-3,-5.7501798E-3,1.6696252E-3,-1.6861542E-3,4.816513E-3,2.4614816E-3],"categories":[],"categories_nodes":[],"categories_segments":[],"categories_sizes":[],"default_left":[0,0,0,0,0,0,0,0,0,0,0,0,0,0,0],"id":10,"left_children":[1,3,5,7,9,11,13,-1,-1,-1,-1,-1,-1,-1,-1],"loss_changes":[2.7507965E2,1.3165036E2,5.548538E1,4.9838223E1,2.6236725E1,2.9670816E1,1.2879845E1,0E0,0E0,0E0,0E0,0E0,0E0,0E0,0E0],"parents":[2147483647,0,0,1,1,2,2,3,3,4,4,5,5,6,6],"right_children":[2,4,6,8,10,12,14,-1,-1,-1,-1,-1,-1,-1,-1],"split_conditions":[2E1,1.4E1,5.14E-1,1E1,2.3E1,-4.8E0,-6.1E0,-2.6099111E-3,2.0234566E-4,-3.5502545E-3,-5.7501798E-3,1.6696252E-3,-1.6861542E-3,4.816513E-3,2.4614816E-3],"split_indices":[28,80,55,51,80,25,25,0,0,0,0,0,0,0,0],"split_type":[0,0,0,0,0,0,0,0,0,0,0,0,0,0,0],"sum_hessian":[6.799642E3,4.7645205E3,2.0351213E3,2.5237798E3,2.2407407E3,1.0553688E3,9.797525E2,1.2087812E3,1.3149985E3,1.3002671E3,9.404737E2,5.5791895E2,4.9744986E2,3.85313E2,5.944395E2],"tree_param":{"num_deleted":"0","num_feature":"106","num_nodes":"15","size_leaf_vector":"1"}},{"base_weights":[1.3977419E-1,2.7121085E-1,-1.6792057E-1,1.1451039E-1,4.4757512E-1,-8.777373E-3,-3.3916256E-1,2.6099116E-3,-2.0234595E-4,3.5502552E-3,5.75018E-3,-1.6696248E-3,1.6861545E-3,-4.8165126E-3,-2.4614825E-3],"categories":[],"categories_nodes":[],"categories_segments":[],"categories_sizes":[],"default_left":[0,0,0,0,0,0,0,0,0,0,0,0,0,0,0],"id":11,"left_children":[1,3,5,7,9,11,13,-1,-1,-1,-1,-1,-1,-1,-1],"loss_changes":[2.7507965E2,1.3165039E2,5.54854E1,4.9838245E1,2.6236755E1,2.967082E1,1.2879822E1,0E0,0E0,0E0,0E0,0E0,0E0,0E0,0E0],"parents":[2147483647,0,0,1,1,2,2,3,3,4,4,5,5,6,6],"right_children":[2,4,6,8,10,12,14,-1,-1,-1,-1,-1,-1,-1,-1],"split_conditions":[2E1,1.4E1,5.14E-1,1E1,2.3E1,-4.8E0,-6.1E0,2.6099116E-3,-2.0234595E-4,3.5502552E-3,5.75018E-3,-1.6696248E-3,1.6861545E-3,-4.8165126E-3,-2.4614825E-3],"split_indices":[28,80,55,51,80,25,25,0,0,0,0,0,0,0,0],"split_type":[0,0,0,0,0,0,0,0,0,0,0,0,0,0,0],"sum_hessian":[6.799642E3,4.7645205E3,2.0351213E3,2.52378E3,2.2407407E3,1.0553688E3,9.7975244E2,1.2087814E3,1.3149987E3,1.300267E3,9.4047363E2,5.5791895E2,4.9744986E2,3.85313E2,5.9443945E2],"tree_param":{"num_deleted":"0","num_feature":"106","num_nodes":"15","size_leaf_vector":"1"}},{"base_weights":[-1.383926E-1,-2.685354E-1,1.662576E-1,-1.1337046E-1,-4.432046E-1,-7.869076E-2,2.7592808E-1,-2.5840332E-3,2.0032431E-4,-6.0688388E-3,-3.715819E-3,8.0653693E-4,-2.4795535E-3,4.2251204E-3,1.8266903E-3],"categories":[],"categories_nodes":[],"categories_segments":[],"categories_sizes":[],"default_left":[0,0,0,0,0,0,0,0,0,0,0,0,0,0,0],"id":12,"left_children":[1,3,5,7,9,11,13,-1,-1,-1,-1,-1,-1,-1,-1],"loss_changes":[2.6964673E2,1.2909113E2,5.471516E1,4.885231E1,2.6048737E1,1.70235E1,1.915062E1,0E0,0E0,0E0,0E0,0E0,0E0,0E0,0E0],"parents":[2147483647,0,0,1,1,2,2,3,3,4,4,5,5,6,6],"right_children":[2,4,6,8,10,12,14,-1,-1,-1,-1,-1,-1,-1,-1],"split_conditions":[2E1,1.4E1,-2E0,1E1,7E0,-4.8E0,-6.3E0,-2.5840332E-3,2.0032431E-4,-6.0688388E-3,-3.715819E-3,8.0653693E-4,-2.4795535E-3,4.2251204E-3,1.8266903E-3],"split_indices":[28,80,77,51,51,25,25,0,0,0,0,0,0,0,0],"split_type":[0,0,0,0,0,0,0,0,0,0,0,0,0,0,0],"sum_hessian":[6.798886E3,4.763918E3,2.0349681E3,2.5236863E3,2.2402317E3,6.2942773E2,1.4055404E3,1.2086884E3,1.3149979E3,6.7962134E2,1.5606105E3,3.244842E2,3.0494354E2,5.451488E2,8.6039166E2],"tree_param":{"num_deleted":"0","num_feature":"106","num_nodes":"15","size_leaf_vector":"1"}},{"base_weights":[1.3839264E-1,2.6853544E-1,-1.6625758E-1,1.1337051E-1,4.4320467E-1,7.869078E-2,-2.7592808E-1,2.5840332E-3,-2.0032343E-4,6.0688383E-3,3.71582E-3,-8.0653606E-4,2.4795532E-3,-4.22512E-3,-1.82669E-3],"categories":[],"categories_nodes":[],"categories_segments":[],"categories_sizes":[],"default_left":[0,0,0,0,0,0,0,0,0,0,0,0,0,0,0],"id":13,"left_children":[1,3,5,7,9,11,13,-1,-1,-1,-1,-1,-1,-1,-1],"loss_changes":[2.6964673E2,1.2909113E2,5.471516E1,4.8852283E1,2.6048737E1,1.702349E1,1.9150627E1,0E0,0E0,0E0,0E0,0E0,0E0,0E0,0E0],"parents":[2147483647,0,0,1,1,2,2,3,3,4,4,5,5,6,6],"right_children":[2,4,6,8,10,12,14,-1,-1,-1,-1,-1,-1,-1,-1],"split_conditions":[2E1,1.4E1,-2E0,1E1,7E0,-4.8E0,-6.3E0,2.5840332E-3,-2.0032343E-4,6.0688383E-3,3.71582E-3,-8.0653606E-4,2.4795532E-3,-4.22512E-3,-1.82669E-3],"split_indices":[28,80,77,51,51,25,25,0,0,0,0,0,0,0,0],"split_type":[0,0,0,0,0,0,0,0,0,0,0,0,0,0,0],"sum_hessian":[6.798886E3,4.763918E3,2.0349681E3,2.5236863E3,2.2402317E3,6.2942773E2,1.4055404E3,1.2086884E3,1.314998E3,6.7962134E2,1.5606104E3,3.244842E2,3.0494354E2,5.451488E2,8.6039166E2],"tree_param":{"num_deleted":"0","num_feature":"106","num_nodes":"15","size_leaf_vector":"1"}},{"base_weights":[-1.3702853E-1,-2.6589364E-1,1.646125E-1,-1.1224264E-1,-4.3889895E-1,7.987429E-3,3.3317184E-1,-2.5584446E-3,1.9832203E-4,-3.4720148E-3,-5.651905E-3,1.632927E-3,-1.6616771E-3,4.7300686E-3,2.419224E-3],"categories":[],"categories_nodes":[],"categories_segments":[],"categories_sizes":[],"default_left":[0,0,0,0,0,0,0,0,0,0,0,0,0,0,0],"id":14,"left_children":[1,3,5,7,9,11,13,-1,-1,-1,-1,-1,-1,-1,-1],"loss_changes":[2.643265E2,1.2659454E2,5.3743183E1,4.7886677E1,2.5751404E1,2.8596323E1,1.23967285E1,0E0,0E0,0E0,0E0,0E0,0E0,0E0,0E0],"parents":[2147483647,0,0,1,1,2,2,3,3,4,4,5,5,6,6],"right_children":[2,4,6,8,10,12,14,-1,-1,-1,-1,-1,-1,-1,-1],"split_conditions":[2E1,1.4E1,5.14E-1,1E1,2.3E1,-4.8E0,-6.1E0,-2.5584446E-3,1.9832203E-4,-3.4720148E-3,-5.651905E-3,1.632927E-3,-1.6616771E-3,4.7300686E-3,2.419224E-3],"split_indices":[28,80,55,51,80,25,25,0,0,0,0,0,0,0,0],"split_type":[0,0,0,0,0,0,0,0,0,0,0,0,0,0,0],"sum_hessian":[6.797969E3,4.7631895E3,2.0347798E3,2.5235771E3,2.2396123E3,1.055271E3,9.795088E2,1.20858E3,1.3149973E3,1.2996879E3,9.399245E2,5.578568E2,4.974142E2,3.851313E2,5.943775E2],"tree_param":{"num_deleted":"0","num_feature":"106","num_nodes":"15","size_leaf_vector":"1"}},{"base_weights":[1.3702852E-1,2.6589358E-1,-1.646125E-1,1.1224262E-1,4.3889892E-1,-7.987482E-3,-3.3317178E-1,2.5584446E-3,-1.9832232E-4,3.4720143E-3,5.651905E-3,-1.6329273E-3,1.6616763E-3,-4.7300686E-3,-2.419223E-3],"categories":[],"categories_nodes":[],"categories_segments":[],"categories_sizes":[],"default_left":[0,0,0,0,0,0,0,0,0,0,0,0,0,0,0],"id":15,"left_children":[1,3,5,7,9,11,13,-1,-1,-1,-1,-1,-1,-1,-1],"loss_changes":[2.6432648E2,1.2659454E2,5.374315E1,4.788669E1,2.5751404E1,2.8596312E1,1.2396744E1,0E0,0E0,0E0,0E0,0E0,0E0,0E0,0E0],"parents":[2147483647,0,0,1,1,2,2,3,3,4,4,5,5,6,6],"right_children":[2,4,6,8,10,12,14,-1,-1,-1,-1,-1,-1,-1,-1],"split_conditions":[2E1,1.4E1,5.14E-1,1E1,2.3E1,-4.8E0,-6.1E0,2.5584446E-3,-1.9832232E-4,3.4720143E-3,5.651905E-3,-1.6329273E-3,1.6616763E-3,-4.7300686E-3,-2.419223E-3],"split_indices":[28,80,55,51,80,25,25,0,0,0,0,0,0,0,0],"split_type":[0,0,0,0,0,0,0,0,0,0,0,0,0,0,0],"sum_hessian":[6.7979697E3,4.7631895E3,2.0347799E3,2.5235774E3,2.2396123E3,1.055271E3,9.7950885E2,1.20858E3,1.3149973E3,1.2996879E3,9.399245E2,5.578568E2,4.974142E2,3.851313E2,5.9437756E2],"tree_param":{"num_deleted":"0","num_feature":"106","num_nodes":"15","size_leaf_vector":"1"}},{"base_weights":[-1.3567917E-1,-2.6328176E-1,1.6298652E-1,-1.11126624E-1,-4.3464625E-1,-7.80058E-2,2.709033E-1,-2.5331404E-3,1.9634119E-4,-5.969735E-3,-3.6364687E-3,7.816679E-4,-2.4391257E-3,4.147997E-3,1.7938827E-3],"categories":[],"categories_nodes":[],"categories_segments":[],"categories_sizes":[],"default_left":[0,0,0,0,0,0,0,0,0,0,0,0,0,0,0],"id":16,"left_children":[1,3,5,7,9,11,13,-1,-1,-1,-1,-1,-1,-1,-1],"loss_changes":[2.591167E2,1.2415222E2,5.296056E1,4.6940968E1,2.559845E1,1.6352137E1,1.844339E1,0E0,0E0,0E0,0E0,0E0,0E0,0E0,0E0],"parents":[2147483647,0,0,1,1,2,2,3,3,4,4,5,5,6,6],"right_children":[2,4,6,8,10,12,14,-1,-1,-1,-1,-1,-1,-1,-1],"split_conditions":[2E1,1.4E1,-2E0,1E1,7E0,-4.8E0,-6.3E0,-2.5331404E-3,1.9634119E-4,-5.969735E-3,-3.6364687E-3,7.816679E-4,-2.4391257E-3,4.147997E-3,1.7938827E-3],"split_indices":[28,80,77,51,51,25,25,0,0,0,0,0,0,0,0],"split_type":[0,0,0,0,0,0,0,0,0,0,0,0,0,0,0],"sum_hessian":[6.796962E3,4.7623877E3,2.0345745E3,2.5234531E3,2.2389343E3,6.293749E2,1.4051995E3,1.2084567E3,1.3149965E3,6.790353E2,1.559899E3,3.2447064E2,3.0490427E2,5.44891E2,8.603085E2],"tree_param":{"num_deleted":"0","num_feature":"106","num_nodes":"15","size_leaf_vector":"1"}},{"base_weights":[1.3567917E-1,2.6328173E-1,-1.6298649E-1,1.1112664E-1,4.3464622E-1,7.800586E-2,-2.7090326E-1,2.5331408E-3,-1.9634119E-4,5.969735E-3,3.636468E-3,-7.81667E-4,2.439126E-3,-4.1479967E-3,-1.7938827E-3],"categories":[],"categories_nodes":[],"categories_segments":[],"categories_sizes":[],"default_left":[0,0,0,0,0,0,0,0,0,0,0,0,0,0,0],"id":17,"left_children":[1,3,5,7,9,11,13,-1,-1,-1,-1,-1,-1,-1,-1],"loss_changes":[2.591167E2,1.2415222E2,5.296056E1,4.694097E1,2.559845E1,1.635213E1,1.844339E1,0E0,0E0,0E0,0E0,0E0,0E0,0E0,0E0],"parents":[2147483647,0,0,1,1,2,2,3,3,4,4,5,5,6,6],"right_children":[2,4,6,8,10,12,14,-1,-1,-1,-1,-1,-1,-1,-1],"split_conditions":[2E1,1.4E1,-2E0,1E1,7E0,-4.8E0,-6.3E0,2.5331408E-3,-1.9634119E-4,5.969735E-3,3.636468E-3,-7.81667E-4,2.439126E-3,-4.1479967E-3,-1.7938827E-3],"split_indices":[28,80,77,51,51,25,25,0,0,0,0,0,0,0,0],"split_type":[0,0,0,0,0,0,0,0,0,0,0,0,0,0,0],"sum_hessian":[6.796962E3,4.7623877E3,2.0345745E3,2.5234534E3,2.2389343E3,6.2937494E2,1.4051996E3,1.2084568E3,1.3149965E3,6.790353E2,1.5598992E3,3.2447064E2,3.0490427E2,5.4489105E2,8.603085E2],"tree_param":{"num_deleted":"0","num_feature":"106","num_nodes":"15","size_leaf_vector":"1"}},{"base_weights":[-1.3434665E-1,-2.6070225E-1,1.6137777E-1,-1.1002234E-1,-4.3045533E-1,7.222728E-3,3.2731426E-1,-2.5081157E-3,1.9437943E-4,-3.395778E-3,-5.5564903E-3,1.5970662E-3,-1.6375893E-3,4.6458724E-3,2.3777876E-3],"categories":[],"categories_nodes":[],"categories_segments":[],"categories_sizes":[],"default_left":[0,0,0,0,0,0,0,0,0,0,0,0,0,0,0],"id":18,"left_children":[1,3,5,7,9,11,13,-1,-1,-1,-1,-1,-1,-1,-1],"loss_changes":[2.5401442E2,1.217688E2,5.206144E1,4.6014595E1,2.5286774E1,2.756198E1,1.1936836E1,0E0,0E0,0E0,0E0,0E0,0E0,0E0,0E0],"parents":[2147483647,0,0,1,1,2,2,3,3,4,4,5,5,6,6],"right_children":[2,4,6,8,10,12,14,-1,-1,-1,-1,-1,-1,-1,-1],"split_conditions":[2E1,1.4E1,5.14E-1,1E1,2.3E1,-4.8E0,-6.1E0,-2.5081157E-3,1.9437943E-4,-3.395778E-3,-5.5564903E-3,1.5970662E-3,-1.6375893E-3,4.6458724E-3,2.3777876E-3],"split_indices":[28,80,55,51,80,25,25,0,0,0,0,0,0,0,0],"split_type":[0,0,0,0,0,0,0,0,0,0,0,0,0,0,0],"sum_hessian":[6.795803E3,4.7614663E3,2.0343365E3,2.523315E3,2.2381516E3,1.0551476E3,9.7918896E2,1.2083193E3,1.3149955E3,1.2989572E3,9.391945E2,5.5777856E2,4.97369E2,3.8489352E2,5.942955E2],"tree_param":{"num_deleted":"0","num_feature":"106","num_nodes":"15","size_leaf_vector":"1"}},{"base_weights":[1.3434666E-1,2.6070228E-1,-1.6137774E-1,1.1002241E-1,4.3045527E-1,-7.222721E-3,-3.2731417E-1,2.508117E-3,-1.9437916E-4,3.395777E-3,5.5564903E-3,-1.5970665E-3,1.6375898E-3,-4.6458724E-3,-2.3777864E-3],"categories":[],"categories_nodes":[],"categories_segments":[],"categories_sizes":[],"default_left":[0,0,0,0,0,0,0,0,0,0,0,0,0,0,0],"id":19,"left_children":[1,3,5,7,9,11,13,-1,-1,-1,-1,-1,-1,-1,-1],"loss_changes":[2.5401436E2,1.2176871E2,5.2061413E1,4.6014603E1,2.5286804E1,2.756199E1,1.19368515E1,0E0,0E0,0E0,0E0,0E0,0E0,0E0,0E0],"parents":[2147483647,0,0,1,1,2,2,3,3,4,4,5,5,6,6],"right_children":[2,4,6,8,10,12,14,-1,-1,-1,-1,-1,-1,-1,-1],"split_conditions":[2E1,1.4E1,5.14E-1,1E1,2.3E1,-4.8E0,-6.1E0,2.508117E-3,-1.9437916E-4,3.395777E-3,5.5564903E-3,-1.5970665E-3,1.6375898E-3,-4.6458724E-3,-2.3777864E-3],"split_indices":[28,80,55,51,80,25,25,0,0,0,0,0,0,0,0],"split_type":[0,0,0,0,0,0,0,0,0,0,0,0,0,0,0],"sum_hessian":[6.7958027E3,4.7614663E3,2.0343365E3,2.5233147E3,2.2381516E3,1.0551476E3,9.7918896E2,1.2083192E3,1.3149955E3,1.2989572E3,9.391944E2,5.5777856E2,4.97369E2,3.8489352E2,5.942955E2],"tree_param":{"num_deleted":"0","num_feature":"106","num_nodes":"15","size_leaf_vector":"1"}},{"base_weights":[-1.3302842E-1,-2.5815165E-1,1.5978763E-1,-1.0892974E-1,-4.2631486E-1,-1.5197003E-1,2.4080004E-1,-2.9243226E-3,-1.14855364E-4,-5.873555E-3,-3.5591512E-3,-2.5973332E-3,1.0627749E-3,3.803049E-3,1.4515817E-3],"categories":[],"categories_nodes":[],"categories_segments":[],"categories_sizes":[],"default_left":[0,0,0,0,0,0,0,0,0,0,0,0,0,0,0],"id":20,"left_children":[1,3,5,7,9,11,13,-1,-1,-1,-1,-1,-1,-1,-1],"loss_changes":[2.4901758E2,1.1943634E2,5.1435104E1,4.513185E1,2.5167206E1,1.1726255E1,2.1502487E1,0E0,0E0,0E0,0E0,0E0,0E0,0E0,0E0],"parents":[2147483647,0,0,1,1,2,2,3,3,4,4,5,5,6,6],"right_children":[2,4,6,8,10,12,14,-1,-1,-1,-1,-1,-1,-1,-1],"split_conditions":[2E1,1.4E1,3.58E-1,7E0,7E0,2.7E1,-6.1E0,-2.9243226E-3,-1.14855364E-4,-5.873555E-3,-3.5591512E-3,-2.5973332E-3,1.0627749E-3,3.803049E-3,1.4515817E-3],"split_indices":[28,80,55,29,51,28,25,0,0,0,0,0,0,0,0],"split_type":[0,0,0,0,0,0,0,0,0,0,0,0,0,0,0],"sum_hessian":[6.7945596E3,4.7604775E3,2.0340818E3,2.5231626E3,2.2373152E3,4.1936728E2,1.6147145E3,8.744453E2,1.6487172E3,6.7831476E2,1.5590004E3,2.958904E2,1.234769E2,6.555466E2,9.5916785E2],"tree_param":{"num_deleted":"0","num_feature":"106","num_nodes":"15","size_leaf_vector":"1"}},{"base_weights":[1.3302842E-1,2.5815165E-1,-1.5978758E-1,1.0892974E-1,4.2631486E-1,1.5197003E-1,-2.408E-1,2.9243235E-3,1.14854905E-4,5.8735553E-3,3.559151E-3,2.5973332E-3,-1.0627751E-3,-3.8030483E-3,-1.4515813E-3],"categories":[],"categories_nodes":[],"categories_segments":[],"categories_sizes":[],"default_left":[0,0,0,0,0,0,0,0,0,0,0,0,0,0,0],"id":21,"left_children":[1,3,5,7,9,11,13,-1,-1,-1,-1,-1,-1,-1,-1],"loss_changes":[2.4901752E2,1.1943634E2,5.1435093E1,4.5131897E1,2.5167267E1,1.1726259E1,2.150248E1,0E0,0E0,0E0,0E0,0E0,0E0,0E0,0E0],"parents":[2147483647,0,0,1,1,2,2,3,3,4,4,5,5,6,6],"right_children":[2,4,6,8,10,12,14,-1,-1,-1,-1,-1,-1,-1,-1],"split_conditions":[2E1,1.4E1,3.58E-1,7E0,7E0,2.7E1,-6.1E0,2.9243235E-3,1.14854905E-4,5.8735553E-3,3.559151E-3,2.5973332E-3,-1.0627751E-3,-3.8030483E-3,-1.4515813E-3],"split_indices":[28,80,55,29,51,28,25,0,0,0,0,0,0,0,0],"split_type":[0,0,0,0,0,0,0,0,0,0,0,0,0,0,0],"sum_hessian":[6.794559E3,4.7604775E3,2.0340818E3,2.5231624E3,2.2373152E3,4.193673E2,1.6147145E3,8.7444525E2,1.648717E3,6.7831476E2,1.5590004E3,2.958904E2,1.23476906E2,6.5554663E2,9.5916785E2],"tree_param":{"num_deleted":"0","num_feature":"106","num_nodes":"15","size_leaf_vector":"1"}},{"base_weights":[-1.317252E-1,-2.556306E-1,1.5821095E-1,-1.5653028E-1,-5.055075E-1,6.2780483E-3,3.2179973E-1,-3.5410665E-4,-2.9965097E-3,-5.5682966E-3,-3.3986347E-3,1.5633581E-3,-1.6196695E-3,4.826569E-3,2.4776394E-3],"categories":[],"categories_nodes":[],"categories_segments":[],"categories_sizes":[],"default_left":[0,0,0,0,0,0,0,0,0,0,0,0,0,0,0],"id":22,"left_children":[1,3,5,7,9,11,13,-1,-1,-1,-1,-1,-1,-1,-1],"loss_changes":[2.441213E2,1.1780234E2,5.0572807E1,5.910125E1,1.1299133E1,2.6686152E1,1.1549187E1,0E0,0E0,0E0,0E0,0E0,0E0,0E0,0E0],"parents":[2147483647,0,0,1,1,2,2,3,3,4,4,5,5,6,6],"right_children":[2,4,6,8,10,12,14,-1,-1,-1,-1,-1,-1,-1,-1],"split_conditions":[2E1,2E1,5.14E-1,2.9E0,-2.5E0,-4.8E0,-7E0,-3.5410665E-4,-2.9965097E-3,-5.5682966E-3,-3.3986347E-3,1.5633581E-3,-1.6196695E-3,4.826569E-3,2.4776394E-3],"split_indices":[28,80,55,25,77,25,25,0,0,0,0,0,0,0,0],"split_type":[0,0,0,0,0,0,0,0,0,0,0,0,0,0,0],"sum_hessian":[6.7932437E3,4.759409E3,2.0338345E3,3.409027E3,1.350382E3,1.0550221E3,9.788124E2,1.8471099E3,1.5619174E3,1.0291537E3,3.212283E2,5.5768945E2,4.9733264E2,3.0677167E2,6.720407E2],"tree_param":{"num_deleted":"0","num_feature":"106","num_nodes":"15","size_leaf_vector":"1"}},{"base_weights":[1.3172522E-1,2.556306E-1,-1.5821095E-1,1.5653029E-1,5.055076E-1,-6.278E-3,-3.2179976E-1,3.541072E-4,2.9965097E-3,5.5682976E-3,3.3986347E-3,-1.563358E-3,1.6196702E-3,-4.826568E-3,-2.4776403E-3],"categories":[],"categories_nodes":[],"categories_segments":[],"categories_sizes":[],"default_left":[0,0,0,0,0,0,0,0,0,0,0,0,0,0,0],"id":23,"left_children":[1,3,5,7,9,11,13,-1,-1,-1,-1,-1,-1,-1,-1],"loss_changes":[2.4412134E2,1.1780237E2,5.0572834E1,5.9101242E1,1.1299133E1,2.6686161E1,1.1549164E1,0E0,0E0,0E0,0E0,0E0,0E0,0E0,0E0],"parents":[2147483647,0,0,1,1,2,2,3,3,4,4,5,5,6,6],"right_children":[2,4,6,8,10,12,14,-1,-1,-1,-1,-1,-1,-1,-1],"split_conditions":[2E1,2E1,5.14E-1,2.9E0,-2.5E0,-4.8E0,-7E0,3.541072E-4,2.9965097E-3,5.5682976E-3,3.3986347E-3,-1.563358E-3,1.6196702E-3,-4.826568E-3,-2.4776403E-3],"split_indices":[28,80,55,25,77,25,25,0,0,0,0,0,0,0,0],"split_type":[0,0,0,0,0,0,0,0,0,0,0,0,0,0,0],"sum_hessian":[6.7932437E3,4.759409E3,2.0338345E3,3.4090273E3,1.350382E3,1.0550221E3,9.788124E2,1.84711E3,1.5619174E3,1.0291537E3,3.212283E2,5.5768945E2,4.9733264E2,3.067717E2,6.720407E2],"tree_param":{"num_deleted":"0","num_feature":"106","num_nodes":"15","size_leaf_vector":"1"}},{"base_weights":[-1.3043535E-1,-2.5313467E-1,1.5665542E-1,-1.0628674E-1,-4.187357E-1,-7.733007E-2,2.614817E-1,-2.4367413E-3,1.9994155E-4,-5.780091E-3,-3.4915379E-3,5.4018514E-4,-2.6113533E-3,4.0034894E-3,1.7325198E-3],"categories":[],"categories_nodes":[],"categories_segments":[],"categories_sizes":[],"default_left":[0,0,0,0,0,0,0,0,0,0,0,0,0,0,0],"id":24,"left_children":[1,3,5,7,9,11,13,-1,-1,-1,-1,-1,-1,-1,-1],"loss_changes":[2.3932423E2,1.15693726E2,4.9923035E1,4.3791885E1,2.458432E1,1.522985E1,1.7148605E1,0E0,0E0,0E0,0E0,0E0,0E0,0E0,0E0],"parents":[2147483647,0,0,1,1,2,2,3,3,4,4,5,5,6,6],"right_children":[2,4,6,8,10,12,14,-1,-1,-1,-1,-1,-1,-1,-1],"split_conditions":[2E1,1.4E1,-2E0,1E1,7E0,-4.1E0,-6.3E0,-2.4367413E-3,1.9994155E-4,-5.780091E-3,-3.4915379E-3,5.4018514E-4,-2.6113533E-3,4.0034894E-3,1.7325198E-3],"split_indices":[28,80,77,51,51,25,25,0,0,0,0,0,0,0,0],"split_type":[0,0,0,0,0,0,0,0,0,0,0,0,0,0,0],"sum_hessian":[6.791871E3,4.7583325E3,2.0335386E3,2.5228337E3,2.2354988E3,6.2924554E2,1.404293E3,1.207837E3,1.3149967E3,6.7746686E2,1.5580319E3,3.674029E2,2.6184265E2,5.442092E2,8.6008374E2],"tree_param":{"num_deleted":"0","num_feature":"106","num_nodes":"15","size_leaf_vector":"1"}},{"base_weights":[1.3043535E-1,2.5313467E-1,-1.5665542E-1,1.06286764E-1,4.187357E-1,7.733005E-2,-2.614817E-1,2.4367417E-3,-1.999416E-4,5.7800906E-3,3.4915379E-3,-5.401849E-4,2.6113528E-3,-4.0034894E-3,-1.73252E-3],"categories":[],"categories_nodes":[],"categories_segments":[],"categories_sizes":[],"default_left":[0,0,0,0,0,0,0,0,0,0,0,0,0,0,0],"id":25,"left_children":[1,3,5,7,9,11,13,-1,-1,-1,-1,-1,-1,-1,-1],"loss_changes":[2.3932422E2,1.15693756E2,4.992303E1,4.3791893E1,2.458429E1,1.522984E1,1.7148598E1,0E0,0E0,0E0,0E0,0E0,0E0,0E0,0E0],"parents":[2147483647,0,0,1,1,2,2,3,3,4,4,5,5,6,6],"right_children":[2,4,6,8,10,12,14,-1,-1,-1,-1,-1,-1,-1,-1],"split_conditions":[2E1,1.4E1,-2E0,1E1,7E0,-4.1E0,-6.3E0,2.4367417E-3,-1.999416E-4,5.7800906E-3,3.4915379E-3,-5.401849E-4,2.6113528E-3,-4.0034894E-3,-1.73252E-3],"split_indices":[28,80,77,51,51,25,25,0,0,0,0,0,0,0,0],"split_type":[0,0,0,0,0,0,0,0,0,0,0,0,0,0,0],"sum_hessian":[6.791871E3,4.7583325E3,2.0335386E3,2.5228337E3,2.2354988E3,6.292456E2,1.4042931E3,1.207837E3,1.3149967E3,6.7746686E2,1.5580319E3,3.6740292E2,2.6184268E2,5.442092E2,8.600838E2],"tree_param":{"num_deleted":"0","num_feature":"106","num_nodes":"15","size_leaf_vector":"1"}},{"base_weights":[-1.2916256E-1,-2.506728E-1,1.5511523E-1,-1.5312861E-1,-4.968167E-1,-1.4988099E-1,2.3439646E-1,-3.2530178E-3,-5.520301E-4,-5.4771607E-3,-3.3260216E-3,-2.55555E-3,1.0333958E-3,3.7025346E-3,1.4132311E-3],"categories":[],"categories_nodes":[],"categories_segments":[],"categories_sizes":[],"default_left":[0,0,0,0,0,0,0,0,0,0,0,0,0,0,0],"id":26,"left_children":[1,3,5,7,9,11,13,-1,-1,-1,-1,-1,-1,-1,-1],"loss_changes":[2.3462802E2,1.14164734E2,4.9223503E1,5.746E1,1.1101471E1,1.1273004E1,2.0367859E1,0E0,0E0,0E0,0E0,0E0,0E0,0E0,0E0],"parents":[2147483647,0,0,1,1,2,2,3,3,4,4,5,5,6,6],"right_children":[2,4,6,8,10,12,14,-1,-1,-1,-1,-1,-1,-1,-1],"split_conditions":[2E1,2E1,3.58E-1,7E0,-2.5E0,2.7E1,-6.1E0,-3.2530178E-3,-5.520301E-4,-5.4771607E-3,-3.3260216E-3,-2.55555E-3,1.0333958E-3,3.7025346E-3,1.4132311E-3],"split_indices":[28,80,55,27,77,28,25,0,0,0,0,0,0,0,0],"split_type":[0,0,0,0,0,0,0,0,0,0,0,0,0,0,0],"sum_hessian":[6.7902886E3,4.75707E3,2.0332189E3,3.4080989E3,1.3489708E3,4.1929465E2,1.6139242E3,1.2347806E3,2.1733184E3,1.0280001E3,3.2097067E2,2.9582974E2,1.23464905E2,6.5494214E2,9.589821E2],"tree_param":{"num_deleted":"0","num_feature":"106","num_nodes":"15","size_leaf_vector":"1"}},{"base_weights":[1.2916255E-1,2.506728E-1,-1.5511529E-1,1.5312858E-1,4.9681675E-1,1.4988099E-1,-2.3439652E-1,3.2530173E-3,5.5203E-4,5.477161E-3,3.3260214E-3,2.55555E-3,-1.0333958E-3,-3.7025346E-3,-1.4132321E-3],"categories":[],"categories_nodes":[],"categories_segments":[],"categories_sizes":[],"default_left":[0,0,0,0,0,0,0,0,0,0,0,0,0,0,0],"id":27,"left_children":[1,3,5,7,9,11,13,-1,-1,-1,-1,-1,-1,-1,-1],"loss_changes":[2.3462808E2,1.14164764E2,4.9223522E1,5.7459984E1,1.1101471E1,1.1273007E1,2.0367844E1,0E0,0E0,0E0,0E0,0E0,0E0,0E0,0E0],"parents":[2147483647,0,0,1,1,2,2,3,3,4,4,5,5,6,6],"right_children":[2,4,6,8,10,12,14,-1,-1,-1,-1,-1,-1,-1,-1],"split_conditions":[2E1,2E1,3.58E-1,7E0,-2.5E0,2.7E1,-6.1E0,3.2530173E-3,5.5203E-4,5.477161E-3,3.3260214E-3,2.55555E-3,-1.0333958E-3,-3.7025346E-3,-1.4132321E-3],"split_indices":[28,80,55,27,77,28,25,0,0,0,0,0,0,0,0],"split_type":[0,0,0,0,0,0,0,0,0,0,0,0,0,0,0],"sum_hessian":[6.7902886E3,4.75707E3,2.033219E3,3.4080989E3,1.3489708E3,4.1929465E2,1.6139243E3,1.2347806E3,2.1733184E3,1.0280001E3,3.2097067E2,2.9582974E2,1.23464905E2,6.5494214E2,9.589821E2],"tree_param":{"num_deleted":"0","num_feature":"106","num_nodes":"15","size_leaf_vector":"1"}},{"base_weights":[-1.2790118E-1,1.13682024E-1,-2.682957E-1,-3.2395147E-2,2.7818722E-1,-3.7761277E-1,-4.1044593E-2,1.4392949E-3,-1.8546565E-3,4.3908227E-3,2.167807E-3,-5.0735543E-3,-2.786748E-3,7.568108E-4,-1.8655842E-3],"categories":[],"categories_nodes":[],"categories_segments":[],"categories_sizes":[],"default_left":[0,0,0,0,0,0,0,0,0,0,0,0,0,0,0],"id":28,"left_children":[1,3,5,7,9,11,13,-1,-1,-1,-1,-1,-1,-1,-1],"loss_changes":[2.3031886E2,5.9995213E1,1.0667062E2,3.5736774E1,1.1505692E1,3.707843E1,2.3725052E1,0E0,0E0,0E0,0E0,0E0,0E0,0E0,0E0],"parents":[2147483647,0,0,1,1,2,2,3,3,4,4,5,5,6,6],"right_children":[2,4,6,8,10,12,14,-1,-1,-1,-1,-1,-1,-1,-1],"split_conditions":[4.59E-1,5.19E-1,2.9E0,-4.8E0,-7E0,-1.9E0,3.6E0,1.4392949E-3,-1.8546565E-3,4.3908227E-3,2.167807E-3,-5.0735543E-3,-2.786748E-3,7.568108E-4,-1.8655842E-3],"split_indices":[3,55,77,25,25,77,25,0,0,0,0,0,0,0,0],"split_type":[0,0,0,0,0,0,0,0,0,0,0,0,0,0,0],"sum_hessian":[6.78877E3,2.4952576E3,4.293512E3,1.3220807E3,1.173177E3,2.8985364E3,1.394976E3,6.1440094E2,7.076797E2,3.223684E2,8.5080865E2,1.2522567E3,1.6462795E3,7.743232E2,6.206527E2],"tree_param":{"num_deleted":"0","num_feature":"106","num_nodes":"15","size_leaf_vector":"1"}},{"base_weights":[1.2790118E-1,-1.13682054E-1,2.6829574E-1,3.2395113E-2,-2.7818722E-1,3.776128E-1,4.1044623E-2,-1.4392952E-3,1.854656E-3,-4.390823E-3,-2.1678072E-3,5.073555E-3,2.7867483E-3,-7.568108E-4,1.865585E-3],"categories":[],"categories_nodes":[],"categories_segments":[],"categories_sizes":[],"default_left":[0,0,0,0,0,0,0,0,0,0,0,0,0,0,0],"id":29,"left_children":[1,3,5,7,9,11,13,-1,-1,-1,-1,-1,-1,-1,-1],"loss_changes":[2.3031891E2,5.99952E1,1.0667062E2,3.5736774E1,1.1505699E1,3.707843E1,2.3725065E1,0E0,0E0,0E0,0E0,0E0,0E0,0E0,0E0],"parents":[2147483647,0,0,1,1,2,2,3,3,4,4,5,5,6,6],"right_children":[2,4,6,8,10,12,14,-1,-1,-1,-1,-1,-1,-1,-1],"split_conditions":[4.59E-1,5.19E-1,2.9E0,-4.8E0,-7E0,-1.9E0,3.6E0,-1.4392952E-3,1.854656E-3,-4.390823E-3,-2.1678072E-3,5.073555E-3,2.7867483E-3,-7.568108E-4,1.865585E-3],"split_indices":[3,55,77,25,25,77,25,0,0,0,0,0,0,0,0],"split_type":[0,0,0,0,0,0,0,0,0,0,0,0,0,0,0],"sum_hessian":[6.78877E3,2.4952578E3,4.293512E3,1.3220806E3,1.1731771E3,2.8985361E3,1.394976E3,6.1440094E2,7.076797E2,3.2236844E2,8.5080865E2,1.2522567E3,1.6462795E3,7.743232E2,6.206527E2],"tree_param":{"num_deleted":"0","num_feature":"106","num_nodes":"15","size_leaf_vector":"1"}},{"base_weights":[-1.2665309E-1,-2.4594048E-1,1.5236521E-1,-1.5007374E-1,-4.880872E-1,-1.4817123E-1,2.3050423E-1,-3.1986306E-3,-5.35404E-4,-5.3827753E-3,-3.2625704E-3,-2.5220693E-3,1.0110656E-3,3.6393155E-3,1.391458E-3],"categories":[],"categories_nodes":[],"categories_segments":[],"categories_sizes":[],"default_left":[0,0,0,0,0,0,0,0,0,0,0,0,0,0,0],"id":30,"left_children":[1,3,5,7,9,11,13,-1,-1,-1,-1,-1,-1,-1,-1],"loss_changes":[2.2596999E2,1.10321686E2,4.779E1,5.5845192E1,1.0775909E1,1.0923777E1,1.962777E1,0E0,0E0,0E0,0E0,0E0,0E0,0E0,0E0],"parents":[2147483647,0,0,1,1,2,2,3,3,4,4,5,5,6,6],"right_children":[2,4,6,8,10,12,14,-1,-1,-1,-1,-1,-1,-1,-1],"split_conditions":[2E1,2E1,3.58E-1,7E0,-2.5E0,2.7E1,-6.1E0,-3.1986306E-3,-5.35404E-4,-5.3827753E-3,-3.2625704E-3,-2.5220693E-3,1.0110656E-3,3.6393155E-3,1.391458E-3],"split_indices":[28,80,55,27,77,28,25,0,0,0,0,0,0,0,0],"split_type":[0,0,0,0,0,0,0,0,0,0,0,0,0,0,0],"sum_hessian":[6.7871514E3,4.754571E3,2.0325807E3,3.4072485E3,1.347322E3,4.1923462E2,1.6133461E3,1.2341786E3,2.17307E3,1.0266029E3,3.2071915E2,2.9577966E2,1.2345494E2,6.544907E2,9.588554E2],"tree_param":{"num_deleted":"0","num_feature":"106","num_nodes":"15","size_leaf_vector":"1"}},{"base_weights":[1.266531E-1,2.4594049E-1,-1.523652E-1,1.5007374E-1,4.8808724E-1,1.4817125E-1,-2.3050423E-1,3.1986304E-3,5.354043E-4,5.3827763E-3,3.2625704E-3,2.5220695E-3,-1.0110657E-3,-3.6393155E-3,-1.391458E-3],"categories":[],"categories_nodes":[],"categories_segments":[],"categories_sizes":[],"default_left":[0,0,0,0,0,0,0,0,0,0,0,0,0,0,0],"id":31,"left_children":[1,3,5,7,9,11,13,-1,-1,-1,-1,-1,-1,-1,-1],"loss_changes":[2.2596997E2,1.1032172E2,4.779001E1,5.584516E1,1.0775909E1,1.0923776E1,1.9627777E1,0E0,0E0,0E0,0E0,0E0,0E0,0E0,0E0],"parents":[2147483647,0,0,1,1,2,2,3,3,4,4,5,5,6,6],"right_children":[2,4,6,8,10,12,14,-1,-1,-1,-1,-1,-1,-1,-1],"split_conditions":[2E1,2E1,3.58E-1,7E0,-2.5E0,2.7E1,-6.1E0,3.1986304E-3,5.354043E-4,5.3827763E-3,3.2625704E-3,2.5220695E-3,-1.0110657E-3,-3.6393155E-3,-1.391458E-3],"split_indices":[28,80,55,27,77,28,25,0,0,0,0,0,0,0,0],"split_type":[0,0,0,0,0,0,0,0,0,0,0,0,0,0,0],"sum_hessian":[6.7871514E3,4.754571E3,2.0325807E3,3.4072485E3,1.347322E3,4.1923462E2,1.6133461E3,1.2341786E3,2.17307E3,1.0266028E3,3.2071915E2,2.957797E2,1.2345493E2,6.5449066E2,9.588554E2],"tree_param":{"num_deleted":"0","num_feature":"106","num_nodes":"15","size_leaf_vector":"1"}},{"base_weights":[-1.2541977E-1,-3.098619E-1,5.202858E-2,-4.111617E-1,-1.034202E-1,-1.9570602E-1,1.6194952E-1,-3.3926608E-3,-5.8782236E-3,-2.036738E-3,1.9334319E-4,4.4620372E-4,-3.3001692E-3,5.620497E-4,3.0247732E-3],"categories":[],"categories_nodes":[],"categories_segments":[],"categories_sizes":[],"default_left":[0,0,0,0,0,0,0,0,0,0,0,0,0,0,0],"id":32,"left_children":[1,3,5,7,9,11,13,-1,-1,-1,-1,-1,-1,-1,-1],"loss_changes":[2.2212933E2,6.954993E1,9.424232E1,2.8149994E1,1.350119E1,3.4350433E1,3.5601368E1,0E0,0E0,0E0,0E0,0E0,0E0,0E0,0E0],"parents":[2147483647,0,0,1,1,2,2,3,3,4,4,5,5,6,6],"right_children":[2,4,6,8,10,12,14,-1,-1,-1,-1,-1,-1,-1,-1],"split_conditions":[1.5E1,2.9E0,-2E0,2.3E1,6E0,-4.6E0,2.4E1,-3.3926608E-3,-5.8782236E-3,-2.036738E-3,1.9334319E-4,4.4620372E-4,-3.3001692E-3,5.620497E-4,3.0247732E-3],"split_indices":[51,77,77,80,77,25,51,0,0,0,0,0,0,0,0],"split_type":[0,0,0,0,0,0,0,0,0,0,0,0,0,0,0],"sum_hessian":[6.7854453E3,3.32679E3,3.4586553E3,2.2310396E3,1.0957504E3,1.0627344E3,2.395921E3,1.587781E3,6.4325854E2,6.0279144E2,4.9295892E2,3.8123944E2,6.8149493E2,1.367958E3,1.0279629E3],"tree_param":{"num_deleted":"0","num_feature":"106","num_nodes":"15","size_leaf_vector":"1"}},{"base_weights":[1.2541977E-1,3.0986187E-1,-5.202858E-2,4.1116166E-1,1.0342019E-1,1.9570602E-1,-1.6194952E-1,3.3926608E-3,5.8782236E-3,2.036738E-3,-1.9334334E-4,-4.4620375E-4,3.3001692E-3,-5.6204986E-4,-3.024773E-3],"categories":[],"categories_nodes":[],"categories_segments":[],"categories_sizes":[],"default_left":[0,0,0,0,0,0,0,0,0,0,0,0,0,0,0],"id":33,"left_children":[1,3,5,7,9,11,13,-1,-1,-1,-1,-1,-1,-1,-1],"loss_changes":[2.2212935E2,6.95499E1,9.4242325E1,2.8149933E1,1.3501189E1,3.435043E1,3.5601345E1,0E0,0E0,0E0,0E0,0E0,0E0,0E0,0E0],"parents":[2147483647,0,0,1,1,2,2,3,3,4,4,5,5,6,6],"right_children":[2,4,6,8,10,12,14,-1,-1,-1,-1,-1,-1,-1,-1],"split_conditions":[1.5E1,2.9E0,-2E0,2.3E1,6E0,-4.6E0,2.4E1,3.3926608E-3,5.8782236E-3,2.036738E-3,-1.9334334E-4,-4.4620375E-4,3.3001692E-3,-5.6204986E-4,-3.024773E-3],"split_indices":[51,77,77,80,77,25,51,0,0,0,0,0,0,0,0],"split_type":[0,0,0,0,0,0,0,0,0,0,0,0,0,0,0],"sum_hessian":[6.7854453E3,3.32679E3,3.4586553E3,2.2310396E3,1.0957504E3,1.0627344E3,2.395921E3,1.5877811E3,6.432586E2,6.0279144E2,4.9295892E2,3.8123944E2,6.8149493E2,1.3679579E3,1.0279629E3],"tree_param":{"num_deleted":"0","num_feature":"106","num_nodes":"15","size_leaf_vector":"1"}},{"base_weights":[-1.241994E-1,1.1092778E-1,-2.60899E-1,-3.2061577E-2,2.719909E-1,-3.680509E-1,-3.837722E-2,1.39539E-3,-1.8104216E-3,4.289757E-3,2.121398E-3,-4.9433345E-3,-2.7188319E-3,7.6082896E-4,-1.8112881E-3],"categories":[],"categories_nodes":[],"categories_segments":[],"categories_sizes":[],"default_left":[0,0,0,0,0,0,0,0,0,0,0,0,0,0,0],"id":34,"left_children":[1,3,5,7,9,11,13,-1,-1,-1,-1,-1,-1,-1,-1],"loss_changes":[2.1810144E2,5.7470535E1,1.0229059E2,3.383715E1,1.0934631E1,3.5035156E1,2.2818336E1,0E0,0E0,0E0,0E0,0E0,0E0,0E0,0E0],"parents":[2147483647,0,0,1,1,2,2,3,3,4,4,5,5,6,6],"right_children":[2,4,6,8,10,12,14,-1,-1,-1,-1,-1,-1,-1,-1],"split_conditions":[4.59E-1,5.19E-1,2.9E0,-4.8E0,-7E0,-1.9E0,3.6E0,1.39539E-3,-1.8104216E-3,4.289757E-3,2.121398E-3,-4.9433345E-3,-2.7188319E-3,7.6082896E-4,-1.8112881E-3],"split_indices":[3,55,77,25,25,77,25,0,0,0,0,0,0,0,0],"split_type":[0,0,0,0,0,0,0,0,0,0,0,0,0,0,0],"sum_hessian":[6.783703E3,2.4940518E3,4.2896514E3,1.321577E3,1.1724749E3,2.8949695E3,1.3946818E3,6.141932E2,7.0738385E2,3.2192435E2,8.505505E2,1.2497377E3,1.6452319E3,7.743027E2,6.203791E2],"tree_param":{"num_deleted":"0","num_feature":"106","num_nodes":"15","size_leaf_vector":"1"}},{"base_weights":[1.241994E-1,-1.1092778E-1,2.60899E-1,3.2061562E-2,-2.719909E-1,3.680509E-1,3.8377214E-2,-1.3953899E-3,1.8104214E-3,-4.289757E-3,-2.121398E-3,4.9433345E-3,2.7188319E-3,-7.608289E-4,1.8112878E-3],"categories":[],"categories_nodes":[],"categories_segments":[],"categories_sizes":[],"default_left":[0,0,0,0,0,0,0,0,0,0,0,0,0,0,0],"id":35,"left_children":[1,3,5,7,9,11,13,-1,-1,-1,-1,-1,-1,-1,-1],"loss_changes":[2.1810144E2,5.747054E1,1.0229062E2,3.3837143E1,1.0934624E1,3.5035095E1,2.281833E1,0E0,0E0,0E0,0E0,0E0,0E0,0E0,0E0],"parents":[2147483647,0,0,1,1,2,2,3,3,4,4,5,5,6,6],"right_children":[2,4,6,8,10,12,14,-1,-1,-1,-1,-1,-1,-1,-1],"split_conditions":[4.59E-1,5.19E-1,2.9E0,-4.8E0,-7E0,-1.9E0,3.6E0,-1.3953899E-3,1.8104214E-3,-4.289757E-3,-2.121398E-3,4.9433345E-3,2.7188319E-3,-7.608289E-4,1.8112878E-3],"split_indices":[3,55,77,25,25,77,25,0,0,0,0,0,0,0,0],"split_type":[0,0,0,0,0,0,0,0,0,0,0,0,0,0,0],"sum_hessian":[6.783703E3,2.4940518E3,4.2896514E3,1.321577E3,1.1724747E3,2.8949695E3,1.3946818E3,6.1419324E2,7.0738385E2,3.2192435E2,8.505504E2,1.2497377E3,1.6452319E3,7.743026E2,6.203791E2],"tree_param":{"num_deleted":"0","num_feature":"106","num_nodes":"15","size_leaf_vector":"1"}},{"base_weights":[-1.22992374E-1,-3.043606E-1,5.143126E-2,-3.910361E-1,-7.172967E-2,-1.9225396E-1,1.5953273E-1,-3.2318016E-3,-5.7828445E-3,-2.3397846E-4,-3.23913E-3,4.3087723E-4,-3.2386475E-3,5.583428E-4,2.9740424E-3],"categories":[],"categories_nodes":[],"categories_segments":[],"categories_sizes":[],"default_left":[0,0,0,0,0,0,0,0,0,0,0,0,0,0,0],"id":36,"left_children":[1,3,5,7,9,11,13,-1,-1,-1,-1,-1,-1,-1,-1],"loss_changes":[2.1458942E2,6.702246E1,9.113595E1,3.0592712E1,1.1009472E1,3.294539E1,3.424269E1,0E0,0E0,0E0,0E0,0E0,0E0,0E0,0E0],"parents":[2147483647,0,0,1,1,2,2,3,3,4,4,5,5,6,6],"right_children":[2,4,6,8,10,12,14,-1,-1,-1,-1,-1,-1,-1,-1],"split_conditions":[1.5E1,3.8E0,-2E0,2.3E1,1.17E1,-4.6E0,2.4E1,-3.2318016E-3,-5.7828445E-3,-2.3397846E-4,-3.23913E-3,4.3087723E-4,-3.2386475E-3,5.583428E-4,2.9740424E-3],"split_indices":[51,77,77,80,66,25,51,0,0,0,0,0,0,0,0],"split_type":[0,0,0,0,0,0,0,0,0,0,0,0,0,0,0],"sum_hessian":[6.7818174E3,3.3243574E3,3.45746E3,2.421467E3,9.0289044E2,1.0622129E3,2.395247E3,1.779375E3,6.42092E2,7.585957E2,1.4429474E2,3.812134E2,6.8099945E2,1.3678441E3,1.027403E3],"tree_param":{"num_deleted":"0","num_feature":"106","num_nodes":"15","size_leaf_vector":"1"}},{"base_weights":[1.2299237E-1,3.043606E-1,-5.143128E-2,3.9103606E-1,7.172969E-2,1.9225396E-1,-1.5953276E-1,3.231802E-3,5.782843E-3,2.3397872E-4,3.23913E-3,-4.3087738E-4,3.2386475E-3,-5.583434E-4,-2.9740422E-3],"categories":[],"categories_nodes":[],"categories_segments":[],"categories_sizes":[],"default_left":[0,0,0,0,0,0,0,0,0,0,0,0,0,0,0],"id":37,"left_children":[1,3,5,7,9,11,13,-1,-1,-1,-1,-1,-1,-1,-1],"loss_changes":[2.1458943E2,6.702246E1,9.1135956E1,3.0592743E1,1.100947E1,3.2945393E1,3.424266E1,0E0,0E0,0E0,0E0,0E0,0E0,0E0,0E0],"parents":[2147483647,0,0,1,1,2,2,3,3,4,4,5,5,6,6],"right_children":[2,4,6,8,10,12,14,-1,-1,-1,-1,-1,-1,-1,-1],"split_conditions":[1.5E1,3.8E0,-2E0,2.3E1,1.17E1,-4.6E0,2.4E1,3.231802E-3,5.782843E-3,2.3397872E-4,3.23913E-3,-4.3087738E-4,3.2386475E-3,-5.583434E-4,-2.9740422E-3],"split_indices":[51,77,77,80,66,25,51,0,0,0,0,0,0,0,0],"split_type":[0,0,0,0,0,0,0,0,0,0,0,0,0,0,0],"sum_hessian":[6.7818174E3,3.3243574E3,3.45746E3,2.421467E3,9.0289044E2,1.0622129E3,2.395247E3,1.779375E3,6.42092E2,7.585957E2,1.4429474E2,3.812134E2,6.8099945E2,1.3678441E3,1.027403E3],"tree_param":{"num_deleted":"0","num_feature":"106","num_nodes":"15","size_leaf_vector":"1"}},{"base_weights":[-1.2179905E-1,-2.3704551E-1,1.4763555E-1,-9.78307E-2,-3.945104E-1,4.026557E-3,3.0244425E-1,-2.7073862E-3,-6.138604E-5,-5.50312E-3,-3.2660088E-3,1.4378154E-3,-1.5262477E-3,4.5391936E-3,2.3292508E-3],"categories":[],"categories_nodes":[],"categories_segments":[],"categories_sizes":[],"default_left":[0,0,0,0,0,0,0,0,0,0,0,0,0,0,0],"id":38,"left_children":[1,3,5,7,9,11,13,-1,-1,-1,-1,-1,-1,-1,-1],"loss_changes":[2.1059131E2,1.0408377E2,4.5176342E1,3.998791E1,2.3398499E1,2.3123186E1,1.0192032E1,0E0,0E0,0E0,0E0,0E0,0E0,0E0,0E0],"parents":[2147483647,0,0,1,1,2,2,3,3,4,4,5,5,6,6],"right_children":[2,4,6,8,10,12,14,-1,-1,-1,-1,-1,-1,-1,-1],"split_conditions":[2E1,1.4E1,5.14E-1,7E0,7E0,-4.8E0,-7E0,-2.7073862E-3,-6.138604E-5,-5.50312E-3,-3.2660088E-3,1.4378154E-3,-1.5262477E-3,4.5391936E-3,2.3292508E-3],"split_indices":[28,80,55,29,51,25,25,0,0,0,0,0,0,0,0],"split_type":[0,0,0,0,0,0,0,0,0,0,0,0,0,0,0],"sum_hessian":[6.7799E3,4.7487964E3,2.0311035E3,2.5213186E3,2.227478E3,1.054198E3,9.769055E2,8.730382E2,1.6482803E3,6.740146E2,1.5534634E3,5.5718915E2,4.970088E2,3.055702E2,6.713353E2],"tree_param":{"num_deleted":"0","num_feature":"106","num_nodes":"15","size_leaf_vector":"1"}},{"base_weights":[1.21799044E-1,2.370455E-1,-1.4763558E-1,9.783069E-2,3.945104E-1,-4.0265736E-3,-3.0244428E-1,2.7073862E-3,6.138588E-5,5.50312E-3,3.2660083E-3,-1.4378155E-3,1.5262475E-3,-4.5391936E-3,-2.329251E-3],"categories":[],"categories_nodes":[],"categories_segments":[],"categories_sizes":[],"default_left":[0,0,0,0,0,0,0,0,0,0,0,0,0,0,0],"id":39,"left_children":[1,3,5,7,9,11,13,-1,-1,-1,-1,-1,-1,-1,-1],"loss_changes":[2.1059134E2,1.040838E2,4.5176346E1,3.9987915E1,2.3398468E1,2.3123184E1,1.01920395E1,0E0,0E0,0E0,0E0,0E0,0E0,0E0,0E0],"parents":[2147483647,0,0,1,1,2,2,3,3,4,4,5,5,6,6],"right_children":[2,4,6,8,10,12,14,-1,-1,-1,-1,-1,-1,-1,-1],"split_conditions":[2E1,1.4E1,5.14E-1,7E0,7E0,-4.8E0,-7E0,2.7073862E-3,6.138588E-5,5.50312E-3,3.2660083E-3,-1.4378155E-3,1.5262475E-3,-4.5391936E-3,-2.329251E-3],"split_indices":[28,80,55,29,51,25,25,0,0,0,0,0,0,0,0],"split_type":[0,0,0,0,0,0,0,0,0,0,0,0,0,0,0],"sum_hessian":[6.7799E3,4.7487964E3,2.0311035E3,2.5213186E3,2.227478E3,1.054198E3,9.769055E2,8.730382E2,1.6482803E3,6.740146E2,1.5534635E3,5.5718915E2,4.9700882E2,3.055702E2,6.7133527E2],"tree_param":{"num_deleted":"0","num_feature":"106","num_nodes":"15","size_leaf_vector":"1"}},{"base_weights":[-1.206202E-1,-2.9890376E-1,5.0760087E-2,-3.970564E-1,-9.9237375E-2,-1.8918233E-1,1.5718324E-1,-3.270705E-3,-5.6941425E-3,-1.9802577E-3,2.1689665E-4,2.329365E-4,-3.2976177E-3,5.557063E-4,2.923505E-3],"categories":[],"categories_nodes":[],"categories_segments":[],"categories_sizes":[],"default_left":[0,0,0,0,0,0,0,0,0,0,0,0,0,0,0],"id":40,"left_children":[1,3,5,7,9,11,13,-1,-1,-1,-1,-1,-1,-1,-1],"loss_changes":[2.0713544E2,6.5076416E1,8.830958E1,2.6680084E1,1.3101748E1,3.1749886E1,3.288473E1,0E0,0E0,0E0,0E0,0E0,0E0,0E0,0E0],"parents":[2147483647,0,0,1,1,2,2,3,3,4,4,5,5,6,6],"right_children":[2,4,6,8,10,12,14,-1,-1,-1,-1,-1,-1,-1,-1],"split_conditions":[1.5E1,2.9E0,-2E0,2.3E1,6E0,-4.1E0,2.4E1,-3.270705E-3,-5.6941425E-3,-1.9802577E-3,2.1689665E-4,2.329365E-4,-3.2976177E-3,5.557063E-4,2.923505E-3],"split_indices":[51,77,77,80,77,25,51,0,0,0,0,0,0,0,0],"split_type":[0,0,0,0,0,0,0,0,0,0,0,0,0,0,0],"sum_hessian":[6.777762E3,3.321611E3,3.4561511E3,2.22624E3,1.0953708E3,1.0616869E3,2.3944644E3,1.5853903E3,6.408499E2,6.025196E2,4.9285126E2,4.2307422E2,6.386126E2,1.3677003E3,1.0267639E3],"tree_param":{"num_deleted":"0","num_feature":"106","num_nodes":"15","size_leaf_vector":"1"}},{"base_weights":[1.206202E-1,2.9890376E-1,-5.076008E-2,3.970564E-1,9.923736E-2,1.8918234E-1,-1.5718324E-1,3.270705E-3,5.6941425E-3,1.9802575E-3,-2.1689692E-4,-2.3293652E-4,3.297618E-3,-5.557062E-4,-2.923505E-3],"categories":[],"categories_nodes":[],"categories_segments":[],"categories_sizes":[],"default_left":[0,0,0,0,0,0,0,0,0,0,0,0,0,0,0],"id":41,"left_children":[1,3,5,7,9,11,13,-1,-1,-1,-1,-1,-1,-1,-1],"loss_changes":[2.0713538E2,6.5076416E1,8.830958E1,2.6680115E1,1.31017475E1,3.1749886E1,3.2884735E1,0E0,0E0,0E0,0E0,0E0,0E0,0E0,0E0],"parents":[2147483647,0,0,1,1,2,2,3,3,4,4,5,5,6,6],"right_children":[2,4,6,8,10,12,14,-1,-1,-1,-1,-1,-1,-1,-1],"split_conditions":[1.5E1,2.9E0,-2E0,2.3E1,6E0,-4.1E0,2.4E1,3.270705E-3,5.6941425E-3,1.9802575E-3,-2.1689692E-4,-2.3293652E-4,3.297618E-3,-5.557062E-4,-2.923505E-3],"split_indices":[51,77,77,80,77,25,51,0,0,0,0,0,0,0,0],"split_type":[0,0,0,0,0,0,0,0,0,0,0,0,0,0,0],"sum_hessian":[6.777762E3,3.321611E3,3.4561511E3,2.2262402E3,1.0953708E3,1.0616869E3,2.394464E3,1.5853903E3,6.408499E2,6.0251965E2,4.9285123E2,4.2307422E2,6.386126E2,1.3677003E3,1.0267639E3],"tree_param":{"num_deleted":"0","num_feature":"106","num_nodes":"15","size_leaf_vector":"1"}},{"base_weights":[-1.19452655E-1,-2.9605076E-1,5.0261375E-2,-3.8079387E-1,-6.893655E-2,-1.8734214E-1,1.5563433E-1,-3.1439122E-3,-5.6439415E-3,-2.1189832E-4,-3.1815022E-3,4.153876E-4,-3.1546776E-3,5.5015297E-4,2.8952295E-3],"categories":[],"categories_nodes":[],"categories_segments":[],"categories_sizes":[],"default_left":[0,0,0,0,0,0,0,0,0,0,0,0,0,0,0],"id":42,"left_children":[1,3,5,7,9,11,13,-1,-1,-1,-1,-1,-1,-1,-1],"loss_changes":[2.0311998E2,6.3893463E1,8.657074E1,2.9307037E1,1.0746439E1,3.11689E1,3.2250748E1,0E0,0E0,0E0,0E0,0E0,0E0,0E0,0E0],"parents":[2147483647,0,0,1,1,2,2,3,3,4,4,5,5,6,6],"right_children":[2,4,6,8,10,12,14,-1,-1,-1,-1,-1,-1,-1,-1],"split_conditions":[1.5E1,3.8E0,-2E0,2.3E1,1.17E1,-4.6E0,2.4E1,-3.1439122E-3,-5.6439415E-3,-2.1189832E-4,-3.1815022E-3,4.153876E-4,-3.1546776E-3,5.5015297E-4,2.8952295E-3],"split_indices":[51,77,77,80,66,25,51,0,0,0,0,0,0,0,0],"split_type":[0,0,0,0,0,0,0,0,0,0,0,0,0,0,0],"sum_hessian":[6.775681E3,3.3201313E3,3.4555498E3,2.4174368E3,9.0269446E2,1.0614126E3,2.3941372E3,1.7773397E3,6.4009717E2,7.5846545E2,1.4422897E2,3.811716E2,6.8024097E2,1.3677021E3,1.026435E3],"tree_param":{"num_deleted":"0","num_feature":"106","num_nodes":"15","size_leaf_vector":"1"}},{"base_weights":[1.1945268E-1,2.960508E-1,-5.0261352E-2,3.8079387E-1,6.893656E-2,1.8734217E-1,-1.5563431E-1,3.1439122E-3,5.6439415E-3,2.1189846E-4,3.1815022E-3,-4.153876E-4,3.1546783E-3,-5.501523E-4,-2.89523E-3],"categories":[],"categories_nodes":[],"categories_segments":[],"categories_sizes":[],"default_left":[0,0,0,0,0,0,0,0,0,0,0,0,0,0,0],"id":43,"left_children":[1,3,5,7,9,11,13,-1,-1,-1,-1,-1,-1,-1,-1],"loss_changes":[2.0311995E2,6.3893463E1,8.657074E1,2.9307037E1,1.074644E1,3.1168903E1,3.225078E1,0E0,0E0,0E0,0E0,0E0,0E0,0E0,0E0],"parents":[2147483647,0,0,1,1,2,2,3,3,4,4,5,5,6,6],"right_children":[2,4,6,8,10,12,14,-1,-1,-1,-1,-1,-1,-1,-1],"split_conditions":[1.5E1,3.8E0,-2E0,2.3E1,1.17E1,-4.6E0,2.4E1,3.1439122E-3,5.6439415E-3,2.1189846E-4,3.1815022E-3,-4.153876E-4,3.1546783E-3,-5.501523E-4,-2.89523E-3],"split_indices":[51,77,77,80,66,25,51,0,0,0,0,0,0,0,0],"split_type":[0,0,0,0,0,0,0,0,0,0,0,0,0,0,0],"sum_hessian":[6.775681E3,3.3201313E3,3.4555498E3,2.4174368E3,9.0269446E2,1.0614126E3,2.3941372E3,1.7773397E3,6.4009717E2,7.584655E2,1.4422897E2,3.811716E2,6.8024097E2,1.3677021E3,1.0264349E3],"tree_param":{"num_deleted":"0","num_feature":"106","num_nodes":"15","size_leaf_vector":"1"}},{"base_weights":[-1.1829822E-1,-2.3062862E-1,1.442068E-1,-9.467881E-2,-3.8464984E-1,-1.4178015E-1,2.1861523E-1,-2.644503E-3,-4.6999394E-5,-5.380017E-3,-3.1790708E-3,-2.4133127E-3,9.657951E-4,3.452218E-3,1.3209453E-3],"categories":[],"categories_nodes":[],"categories_segments":[],"categories_sizes":[],"default_left":[0,0,0,0,0,0,0,0,0,0,0,0,0,0,0],"id":44,"left_children":[1,3,5,7,9,11,13,-1,-1,-1,-1,-1,-1,-1,-1],"loss_changes":[1.9979527E2,9.93139E1,4.3246002E1,3.851731E1,2.259375E1,9.986899E0,1.7611351E1,0E0,0E0,0E0,0E0,0E0,0E0,0E0,0E0],"parents":[2147483647,0,0,1,1,2,2,3,3,4,4,5,5,6,6],"right_children":[2,4,6,8,10,12,14,-1,-1,-1,-1,-1,-1,-1,-1],"split_conditions":[2E1,1.4E1,3.58E-1,7E0,7E0,2.7E1,-6.1E0,-2.644503E-3,-4.6999394E-5,-5.380017E-3,-3.1790708E-3,-2.4133127E-3,9.657951E-4,3.452218E-3,1.3209453E-3],"split_indices":[28,80,55,29,51,28,25,0,0,0,0,0,0,0,0],"split_type":[0,0,0,0,0,0,0,0,0,0,0,0,0,0,0],"sum_hessian":[6.773511E3,4.7437153E3,2.0297958E3,2.520533E3,2.2231824E3,4.1889142E2,1.6109044E3,8.72454E2,1.648079E3,6.720292E2,1.5511533E3,2.95474E2,1.23417435E2,6.5274567E2,9.581587E2],"tree_param":{"num_deleted":"0","num_feature":"106","num_nodes":"15","size_leaf_vector":"1"}},{"base_weights":[1.18298195E-1,2.3062861E-1,-1.4420685E-1,9.467882E-2,3.846498E-1,1.4178014E-1,-2.1861528E-1,2.644503E-3,4.69995E-5,5.3800163E-3,3.1790708E-3,2.4133124E-3,-9.657952E-4,-3.452218E-3,-1.3209458E-3],"categories":[],"categories_nodes":[],"categories_segments":[],"categories_sizes":[],"default_left":[0,0,0,0,0,0,0,0,0,0,0,0,0,0,0],"id":45,"left_children":[1,3,5,7,9,11,13,-1,-1,-1,-1,-1,-1,-1,-1],"loss_changes":[1.997953E2,9.931389E1,4.3246006E1,3.8517307E1,2.259372E1,9.9869E0,1.7611351E1,0E0,0E0,0E0,0E0,0E0,0E0,0E0,0E0],"parents":[2147483647,0,0,1,1,2,2,3,3,4,4,5,5,6,6],"right_children":[2,4,6,8,10,12,14,-1,-1,-1,-1,-1,-1,-1,-1],"split_conditions":[2E1,1.4E1,3.58E-1,7E0,7E0,2.7E1,-6.1E0,2.644503E-3,4.69995E-5,5.3800163E-3,3.1790708E-3,2.4133124E-3,-9.657952E-4,-3.452218E-3,-1.3209458E-3],"split_indices":[28,80,55,29,51,28,25,0,0,0,0,0,0,0,0],"split_type":[0,0,0,0,0,0,0,0,0,0,0,0,0,0,0],"sum_hessian":[6.773511E3,4.7437153E3,2.0297958E3,2.520533E3,2.2231824E3,4.1889145E2,1.6109044E3,8.72454E2,1.648079E3,6.720292E2,1.5511533E3,2.95474E2,1.2341744E2,6.5274567E2,9.581587E2],"tree_param":{"num_deleted":"0","num_feature":"106","num_nodes":"15","size_leaf_vector":"1"}},{"base_weights":[-1.1715695E-1,1.05922945E-1,-2.4698734E-1,-3.091515E-2,2.601354E-1,-3.4994E-1,-3.3746835E-2,1.313648E-3,-1.7184484E-3,1.3190225E-3,3.2683145E-3,-4.7118464E-3,-2.5787705E-3,7.697876E-4,-1.7196054E-3],"categories":[],"categories_nodes":[],"categories_segments":[],"categories_sizes":[],"default_left":[0,0,0,0,0,0,0,0,0,0,0,0,0,0,0],"id":46,"left_children":[1,3,5,7,9,11,13,-1,-1,-1,-1,-1,-1,-1,-1],"loss_changes":[1.961661E2,5.259642E1,9.397421E1,3.0241259E1,9.9786E0,3.210431E1,2.1362593E1,0E0,0E0,0E0,0E0,0E0,0E0,0E0,0E0],"parents":[2147483647,0,0,1,1,2,2,3,3,4,4,5,5,6,6],"right_children":[2,4,6,8,10,12,14,-1,-1,-1,-1,-1,-1,-1,-1],"split_conditions":[4.59E-1,5.19E-1,2.9E0,-4.8E0,2.2E1,-1.9E0,3.6E0,1.313648E-3,-1.7184484E-3,1.3190225E-3,3.2683145E-3,-4.7118464E-3,-2.5787705E-3,7.697876E-4,-1.7196054E-3],"split_indices":[3,55,77,25,28,77,25,0,0,0,0,0,0,0,0],"split_type":[0,0,0,0,0,0,0,0,0,0,0,0,0,0,0],"sum_hessian":[6.7711924E3,2.4910876E3,4.280105E3,1.3203207E3,1.1707671E3,2.8860684E3,1.3940366E3,6.137072E2,7.0661346E2,4.01603E2,7.6916406E2,1.2438414E3,1.6422269E3,7.7422974E2,6.198069E2],"tree_param":{"num_deleted":"0","num_feature":"106","num_nodes":"15","size_leaf_vector":"1"}},{"base_weights":[1.1715697E-1,-1.0592294E-1,2.4698737E-1,3.0915163E-2,-2.601354E-1,3.4994E-1,3.374685E-2,-1.313648E-3,1.7184485E-3,-1.3190227E-3,-3.2683145E-3,4.711847E-3,2.5787707E-3,-7.697876E-4,1.7196058E-3],"categories":[],"categories_nodes":[],"categories_segments":[],"categories_sizes":[],"default_left":[0,0,0,0,0,0,0,0,0,0,0,0,0,0,0],"id":47,"left_children":[1,3,5,7,9,11,13,-1,-1,-1,-1,-1,-1,-1,-1],"loss_changes":[1.9616614E2,5.2596424E1,9.397418E1,3.0241264E1,9.9786E0,3.210434E1,2.1362597E1,0E0,0E0,0E0,0E0,0E0,0E0,0E0,0E0],"parents":[2147483647,0,0,1,1,2,2,3,3,4,4,5,5,6,6],"right_children":[2,4,6,8,10,12,14,-1,-1,-1,-1,-1,-1,-1,-1],"split_conditions":[4.59E-1,5.19E-1,2.9E0,-4.8E0,2.2E1,-1.9E0,3.6E0,-1.313648E-3,1.7184485E-3,-1.3190227E-3,-3.2683145E-3,4.711847E-3,2.5787707E-3,-7.697876E-4,1.7196058E-3],"split_indices":[3,55,77,25,28,77,25,0,0,0,0,0,0,0,0],"split_type":[0,0,0,0,0,0,0,0,0,0,0,0,0,0,0],"sum_hessian":[6.7711924E3,2.4910876E3,4.280105E3,1.3203207E3,1.1707671E3,2.8860684E3,1.3940366E3,6.137072E2,7.0661346E2,4.01603E2,7.6916406E2,1.2438414E3,1.6422269E3,7.742297E2,6.198069E2],"tree_param":{"num_deleted":"0","num_feature":"106","num_nodes":"15","size_leaf_vector":"1"}},{"base_weights":[-1.1602651E-1,-2.88411E-1,4.9516533E-2,-3.7138078E-1,-6.6390485E-2,-1.8281648E-1,1.5251821E-1,-3.0619812E-3,-5.519693E-3,-1.916745E-4,-3.1295752E-3,2.2144672E-4,-3.1862454E-3,5.490793E-4,2.8250718E-3],"categories":[],"categories_nodes":[],"categories_segments":[],"categories_sizes":[],"default_left":[0,0,0,0,0,0,0,0,0,0,0,0,0,0,0],"id":48,"left_children":[1,3,5,7,9,11,13,-1,-1,-1,-1,-1,-1,-1,-1],"loss_changes":[1.9320592E2,6.1069397E1,8.269188E1,2.8247864E1,1.0513487E1,2.9553844E1,3.0357971E1,0E0,0E0,0E0,0E0,0E0,0E0,0E0,0E0],"parents":[2147483647,0,0,1,1,2,2,3,3,4,4,5,5,6,6],"right_children":[2,4,6,8,10,12,14,-1,-1,-1,-1,-1,-1,-1,-1],"split_conditions":[1.5E1,3.8E0,-2E0,2.3E1,1.17E1,-4.1E0,2.4E1,-3.0619812E-3,-5.519693E-3,-1.916745E-4,-3.1295752E-3,2.2144672E-4,-3.1862454E-3,5.490793E-4,2.8250718E-3],"split_indices":[51,77,77,80,66,25,51,0,0,0,0,0,0,0,0],"split_type":[0,0,0,0,0,0,0,0,0,0,0,0,0,0,0],"sum_hessian":[6.7688535E3,3.3155447E3,3.4533088E3,2.4130916E3,9.0245294E2,1.0604832E3,2.3928257E3,1.7750798E3,6.380117E2,7.5829956E2,1.4415338E2,4.2297205E2,6.3751117E2,1.3674291E3,1.0253966E3],"tree_param":{"num_deleted":"0","num_feature":"106","num_nodes":"15","size_leaf_vector":"1"}},{"base_weights":[1.1602651E-1,2.88411E-1,-4.9516536E-2,3.7138078E-1,6.6390485E-2,1.8281646E-1,-1.5251821E-1,3.0619814E-3,5.519693E-3,1.916745E-4,3.1295752E-3,-2.2144662E-4,3.1862454E-3,-5.490794E-4,-2.8250718E-3],"categories":[],"categories_nodes":[],"categories_segments":[],"categories_sizes":[],"default_left":[0,0,0,0,0,0,0,0,0,0,0,0,0,0,0],"id":49,"left_children":[1,3,5,7,9,11,13,-1,-1,-1,-1,-1,-1,-1,-1],"loss_changes":[1.9320592E2,6.1069427E1,8.269188E1,2.8247833E1,1.0513487E1,2.9553837E1,3.0357964E1,0E0,0E0,0E0,0E0,0E0,0E0,0E0,0E0],"parents":[2147483647,0,0,1,1,2,2,3,3,4,4,5,5,6,6],"right_children":[2,4,6,8,10,12,14,-1,-1,-1,-1,-1,-1,-1,-1],"split_conditions":[1.5E1,3.8E0,-2E0,2.3E1,1.17E1,-4.1E0,2.4E1,3.0619814E-3,5.519693E-3,1.916745E-4,3.1295752E-3,-2.2144662E-4,3.1862454E-3,-5.490794E-4,-2.8250718E-3],"split_indices":[51,77,77,80,66,25,51,0,0,0,0,0,0,0,0],"split_type":[0,0,0,0,0,0,0,0,0,0,0,0,0,0,0],"sum_hessian":[6.7688535E3,3.3155447E3,3.4533088E3,2.4130916E3,9.02453E2,1.0604833E3,2.3928257E3,1.7750798E3,6.380117E2,7.5829956E2,1.441534E2,4.2297205E2,6.3751117E2,1.3674291E3,1.0253966E3],"tree_param":{"num_deleted":"0","num_feature":"106","num_nodes":"15","size_leaf_vector":"1"}},{"base_weights":[-1.1490886E-1,-2.8567737E-1,4.9031254E-2,-3.6792263E-1,-6.573383E-2,-1.8104473E-1,1.5101834E-1,-3.0327174E-3,-5.472021E-3,-1.8976232E-4,-3.0993377E-3,2.1923834E-4,-3.1559744E-3,5.4359244E-4,2.7978783E-3],"categories":[],"categories_nodes":[],"categories_segments":[],"categories_sizes":[],"default_left":[0,0,0,0,0,0,0,0,0,0,0,0,0,0,0],"id":50,"left_children":[1,3,5,7,9,11,13,-1,-1,-1,-1,-1,-1,-1,-1],"loss_changes":[1.8947491E2,5.993924E1,8.106582E1,2.7795685E1,1.0309374E1,2.8987488E1,2.9775448E1,0E0,0E0,0E0,0E0,0E0,0E0,0E0,0E0],"parents":[2147483647,0,0,1,1,2,2,3,3,4,4,5,5,6,6],"right_children":[2,4,6,8,10,12,14,-1,-1,-1,-1,-1,-1,-1,-1],"split_conditions":[1.5E1,3.8E0,-2E0,2.3E1,1.17E1,-4.1E0,2.4E1,-3.0327174E-3,-5.472021E-3,-1.8976232E-4,-3.0993377E-3,2.1923834E-4,-3.1559744E-3,5.4359244E-4,2.7978783E-3],"split_indices":[51,77,77,80,66,25,51,0,0,0,0,0,0,0,0],"split_type":[0,0,0,0,0,0,0,0,0,0,0,0,0,0,0],"sum_hessian":[6.7664736E3,3.3138516E3,3.452622E3,2.411447E3,9.0240454E2,1.0601715E3,2.3924504E3,1.7742997E3,6.371474E2,7.582904E2,1.441141E2,4.2297064E2,6.3720087E2,1.3674299E3,1.0250206E3],"tree_param":{"num_deleted":"0","num_feature":"106","num_nodes":"15","size_leaf_vector":"1"}},{"base_weights":[1.1490887E-1,2.8567737E-1,-4.9031243E-2,3.6792263E-1,6.573382E-2,1.8104473E-1,-1.5101832E-1,3.0327174E-3,5.472021E-3,1.8976229E-4,3.0993377E-3,-2.192383E-4,3.1559747E-3,-5.4359215E-4,-2.7978786E-3],"categories":[],"categories_nodes":[],"categories_segments":[],"categories_sizes":[],"default_left":[0,0,0,0,0,0,0,0,0,0,0,0,0,0,0],"id":51,"left_children":[1,3,5,7,9,11,13,-1,-1,-1,-1,-1,-1,-1,-1],"loss_changes":[1.8947491E2,5.993924E1,8.10658E1,2.7795685E1,1.0309374E1,2.8987492E1,2.977546E1,0E0,0E0,0E0,0E0,0E0,0E0,0E0,0E0],"parents":[2147483647,0,0,1,1,2,2,3,3,4,4,5,5,6,6],"right_children":[2,4,6,8,10,12,14,-1,-1,-1,-1,-1,-1,-1,-1],"split_conditions":[1.5E1,3.8E0,-2E0,2.3E1,1.17E1,-4.1E0,2.4E1,3.0327174E-3,5.472021E-3,1.8976229E-4,3.0993377E-3,-2.192383E-4,3.1559747E-3,-5.4359215E-4,-2.7978786E-3],"split_indices":[51,77,77,80,66,25,51,0,0,0,0,0,0,0,0],"split_type":[0,0,0,0,0,0,0,0,0,0,0,0,0,0,0],"sum_hessian":[6.7664736E3,3.3138516E3,3.452622E3,2.411447E3,9.0240454E2,1.0601715E3,2.3924504E3,1.7742997E3,6.371474E2,7.582904E2,1.441141E2,4.2297064E2,6.372008E2,1.3674299E3,1.0250206E3],"tree_param":{"num_deleted":"0","num_feature":"106","num_nodes":"15","size_leaf_vector":"1"}},{"base_weights":[-1.1380335E-1,-2.2232728E-1,1.396364E-1,-1.3403249E-1,-4.4684997E-1,2.9362028E-3,2.871718E-1,-2.9427474E-3,-4.3135724E-4,-3.8694777E-3,-5.7918676E-3,1.340779E-3,-1.4405561E-3,4.3329285E-3,2.202976E-3],"categories":[],"categories_nodes":[],"categories_segments":[],"categories_sizes":[],"default_left":[0,0,0,0,0,0,0,0,0,0,0,0,0,0,0],"id":52,"left_children":[1,3,5,7,9,11,13,-1,-1,-1,-1,-1,-1,-1,-1],"loss_changes":[1.860979E2,9.38495E1,4.0918266E1,4.953129E1,1.0371887E1,2.0339565E1,9.439499E0,0E0,0E0,0E0,0E0,0E0,0E0,0E0,0E0],"parents":[2147483647,0,0,1,1,2,2,3,3,4,4,5,5,6,6],"right_children":[2,4,6,8,10,12,14,-1,-1,-1,-1,-1,-1,-1,-1],"split_conditions":[2E1,2E1,5.14E-1,7E0,3.7E1,-4.8E0,-7E0,-2.9427474E-3,-4.3135724E-4,-3.8694777E-3,-5.7918676E-3,1.340779E-3,-1.4405561E-3,4.3329285E-3,2.202976E-3],"split_indices":[28,80,55,27,54,25,25,0,0,0,0,0,0,0,0],"split_type":[0,0,0,0,0,0,0,0,0,0,0,0,0,0,0],"sum_hessian":[6.7640146E3,4.7361143E3,2.0279005E3,3.4004612E3,1.3356531E3,1.0531321E3,9.747685E2,1.2299465E3,2.1705146E3,9.2216144E2,4.1349167E2,5.566201E2,4.9651196E2,3.043282E2,6.704403E2],"tree_param":{"num_deleted":"0","num_feature":"106","num_nodes":"15","size_leaf_vector":"1"}},{"base_weights":[1.1380334E-1,2.2232726E-1,-1.3963641E-1,1.3403249E-1,4.4684994E-1,-2.9362012E-3,-2.8717187E-1,2.9427467E-3,4.313574E-4,3.8694777E-3,5.7918676E-3,-1.3407792E-3,1.4405565E-3,-4.3329285E-3,-2.2029765E-3],"categories":[],"categories_nodes":[],"categories_segments":[],"categories_sizes":[],"default_left":[0,0,0,0,0,0,0,0,0,0,0,0,0,0,0],"id":53,"left_children":[1,3,5,7,9,11,13,-1,-1,-1,-1,-1,-1,-1,-1],"loss_changes":[1.860979E2,9.38495E1,4.091828E1,4.953127E1,1.0371918E1,2.033957E1,9.439476E0,0E0,0E0,0E0,0E0,0E0,0E0,0E0,0E0],"parents":[2147483647,0,0,1,1,2,2,3,3,4,4,5,5,6,6],"right_children":[2,4,6,8,10,12,14,-1,-1,-1,-1,-1,-1,-1,-1],"split_conditions":[2E1,2E1,5.14E-1,7E0,3.7E1,-4.8E0,-7E0,2.9427467E-3,4.313574E-4,3.8694777E-3,5.7918676E-3,-1.3407792E-3,1.4405565E-3,-4.3329285E-3,-2.2029765E-3],"split_indices":[28,80,55,27,54,25,25,0,0,0,0,0,0,0,0],"split_type":[0,0,0,0,0,0,0,0,0,0,0,0,0,0,0],"sum_hessian":[6.764015E3,4.7361143E3,2.0279005E3,3.4004612E3,1.3356532E3,1.0531321E3,9.7476843E2,1.2299465E3,2.1705146E3,9.221615E2,4.1349167E2,5.566201E2,4.9651196E2,3.043282E2,6.7044025E2],"tree_param":{"num_deleted":"0","num_feature":"106","num_nodes":"15","size_leaf_vector":"1"}},{"base_weights":[-1.1270864E-1,-2.8066936E-1,4.8449274E-2,-3.7407017E-1,-9.140374E-2,-1.7789435E-1,1.4875227E-1,-3.0760013E-3,-5.3864196E-3,-1.8790724E-3,2.6652415E-4,3.846341E-4,-2.9930123E-3,5.400697E-4,2.7505893E-3],"categories":[],"categories_nodes":[],"categories_segments":[],"categories_sizes":[],"default_left":[0,0,0,0,0,0,0,0,0,0,0,0,0,0,0],"id":54,"left_children":[1,3,5,7,9,11,13,-1,-1,-1,-1,-1,-1,-1,-1],"loss_changes":[1.8306235E2,5.8505157E1,7.839687E1,2.4085999E1,1.2486278E1,2.7866829E1,2.8616562E1,0E0,0E0,0E0,0E0,0E0,0E0,0E0,0E0],"parents":[2147483647,0,0,1,1,2,2,3,3,4,4,5,5,6,6],"right_children":[2,4,6,8,10,12,14,-1,-1,-1,-1,-1,-1,-1,-1],"split_conditions":[1.5E1,2.9E0,-2E0,2.3E1,6E0,-4.6E0,2.4E1,-3.0760013E-3,-5.3864196E-3,-1.8790724E-3,2.6652415E-4,3.846341E-4,-2.9930123E-3,5.400697E-4,2.7505893E-3],"split_indices":[51,77,77,80,77,25,51,0,0,0,0,0,0,0,0],"split_type":[0,0,0,0,0,0,0,0,0,0,0,0,0,0,0],"sum_hessian":[6.7615015E3,3.310508E3,3.4509932E3,2.2159712E3,1.0945371E3,1.059455E3,2.3915383E3,1.5804867E3,6.354844E2,6.0191644E2,4.9262064E2,3.8105838E2,6.783965E2,1.3673143E3,1.0242239E3],"tree_param":{"num_deleted":"0","num_feature":"106","num_nodes":"15","size_leaf_vector":"1"}},{"base_weights":[1.1270864E-1,2.8066936E-1,-4.844928E-2,3.7407017E-1,9.140372E-2,1.7789438E-1,-1.487523E-1,3.0760013E-3,5.3864196E-3,1.8790722E-3,-2.6652415E-4,-3.84634E-4,2.9930125E-3,-5.4007E-4,-2.7505895E-3],"categories":[],"categories_nodes":[],"categories_segments":[],"categories_sizes":[],"default_left":[0,0,0,0,0,0,0,0,0,0,0,0,0,0,0],"id":55,"left_children":[1,3,5,7,9,11,13,-1,-1,-1,-1,-1,-1,-1,-1],"loss_changes":[1.8306235E2,5.8505188E1,7.83969E1,2.4085999E1,1.2486274E1,2.7866829E1,2.8616558E1,0E0,0E0,0E0,0E0,0E0,0E0,0E0,0E0],"parents":[2147483647,0,0,1,1,2,2,3,3,4,4,5,5,6,6],"right_children":[2,4,6,8,10,12,14,-1,-1,-1,-1,-1,-1,-1,-1],"split_conditions":[1.5E1,2.9E0,-2E0,2.3E1,6E0,-4.6E0,2.4E1,3.0760013E-3,5.3864196E-3,1.8790722E-3,-2.6652415E-4,-3.84634E-4,2.9930125E-3,-5.4007E-4,-2.7505895E-3],"split_indices":[51,77,77,80,77,25,51,0,0,0,0,0,0,0,0],"split_type":[0,0,0,0,0,0,0,0,0,0,0,0,0,0,0],"sum_hessian":[6.7615015E3,3.310508E3,3.4509932E3,2.2159712E3,1.094537E3,1.059455E3,2.391538E3,1.5804867E3,6.354844E2,6.0191644E2,4.926206E2,3.8105838E2,6.7839655E2,1.3673143E3,1.0242239E3],"tree_param":{"num_deleted":"0","num_feature":"106","num_nodes":"15","size_leaf_vector":"1"}},{"base_weights":[-1.1162635E-1,1.0195256E-1,-2.3605484E-1,-2.9809892E-2,2.5052577E-1,-3.3577332E-1,-3.0051801E-2,1.2496853E-3,-1.6427855E-3,3.959036E-3,1.9535527E-3,-4.5246687E-3,-2.4745225E-3,7.781562E-4,-1.6480463E-3],"categories":[],"categories_nodes":[],"categories_segments":[],"categories_sizes":[],"default_left":[0,0,0,0,0,0,0,0,0,0,0,0,0,0,0],"id":56,"left_children":[1,3,5,7,9,11,13,-1,-1,-1,-1,-1,-1,-1,-1],"loss_changes":[1.796706E2,4.8736557E1,8.774103E1,2.7495922E1,9.30722E0,2.9553223E1,2.0281412E1,0E0,0E0,0E0,0E0,0E0,0E0,0E0,0E0],"parents":[2147483647,0,0,1,1,2,2,3,3,4,4,5,5,6,6],"right_children":[2,4,6,8,10,12,14,-1,-1,-1,-1,-1,-1,-1,-1],"split_conditions":[4.59E-1,5.19E-1,2.9E0,-4.8E0,-7E0,-1.9E0,3.6E0,1.2496853E-3,-1.6427855E-3,3.959036E-3,1.9535527E-3,-4.5246687E-3,-2.4745225E-3,7.781562E-4,-1.6480463E-3],"split_indices":[3,55,77,25,25,77,25,0,0,0,0,0,0,0,0],"split_type":[0,0,0,0,0,0,0,0,0,0,0,0,0,0,0],"sum_hessian":[6.758906E3,2.488179E3,4.2707266E3,1.319117E3,1.1690621E3,2.8773013E3,1.3934254E3,6.132798E2,7.058371E2,3.1990793E2,8.491541E2,1.2377761E3,1.6395253E3,7.7415204E2,6.1927344E2],"tree_param":{"num_deleted":"0","num_feature":"106","num_nodes":"15","size_leaf_vector":"1"}},{"base_weights":[1.1162636E-1,-1.01952545E-1,2.3605484E-1,2.980989E-2,-2.5052574E-1,3.3577332E-1,3.0051814E-2,-1.2496854E-3,1.6427857E-3,-3.959036E-3,-1.9535525E-3,4.524668E-3,2.4745225E-3,-7.7815633E-4,1.6480468E-3],"categories":[],"categories_nodes":[],"categories_segments":[],"categories_sizes":[],"default_left":[0,0,0,0,0,0,0,0,0,0,0,0,0,0,0],"id":57,"left_children":[1,3,5,7,9,11,13,-1,-1,-1,-1,-1,-1,-1,-1],"loss_changes":[1.7967062E2,4.873655E1,8.774101E1,2.7495928E1,9.30722E0,2.9553223E1,2.0281427E1,0E0,0E0,0E0,0E0,0E0,0E0,0E0,0E0],"parents":[2147483647,0,0,1,1,2,2,3,3,4,4,5,5,6,6],"right_children":[2,4,6,8,10,12,14,-1,-1,-1,-1,-1,-1,-1,-1],"split_conditions":[4.59E-1,5.19E-1,2.9E0,-4.8E0,-7E0,-1.9E0,3.6E0,-1.2496854E-3,1.6427857E-3,-3.959036E-3,-1.9535525E-3,4.524668E-3,2.4745225E-3,-7.7815633E-4,1.6480468E-3],"split_indices":[3,55,77,25,25,77,25,0,0,0,0,0,0,0,0],"split_type":[0,0,0,0,0,0,0,0,0,0,0,0,0,0,0],"sum_hessian":[6.758906E3,2.488179E3,4.2707266E3,1.319117E3,1.169062E3,2.8773013E3,1.3934254E3,6.132798E2,7.058371E2,3.1990793E2,8.491541E2,1.2377761E3,1.6395253E3,7.7415204E2,6.192734E2],"tree_param":{"num_deleted":"0","num_feature":"106","num_nodes":"15","size_leaf_vector":"1"}},{"base_weights":[-1.1055451E-1,-2.7578217E-1,4.7888234E-2,-3.558432E-1,-6.2183287E-2,-1.7478593E-1,1.4653504E-1,-2.9311946E-3,-5.303978E-3,-1.6001188E-4,-3.0350466E-3,7.914083E-5,-3.1341682E-3,5.361456E-4,2.7049289E-3],"categories":[],"categories_nodes":[],"categories_segments":[],"categories_sizes":[],"default_left":[0,0,0,0,0,0,0,0,0,0,0,0,0,0,0],"id":58,"left_children":[1,3,5,7,9,11,13,-1,-1,-1,-1,-1,-1,-1,-1],"loss_changes":[1.769119E2,5.6546814E1,7.5815155E1,2.6185852E1,1.0059528E1,2.6842697E1,2.7532314E1,0E0,0E0,0E0,0E0,0E0,0E0,0E0,0E0],"parents":[2147483647,0,0,1,1,2,2,3,3,4,4,5,5,6,6],"right_children":[2,4,6,8,10,12,14,-1,-1,-1,-1,-1,-1,-1,-1],"split_conditions":[1.5E1,3.8E0,-2E0,2.3E1,1.17E1,-3.7E0,2.4E1,-2.9311946E-3,-5.303978E-3,-1.6001188E-4,-3.0350466E-3,7.914083E-5,-3.1341682E-3,5.361456E-4,2.7049289E-3],"split_indices":[51,77,77,80,66,25,51,0,0,0,0,0,0,0,0],"split_type":[0,0,0,0,0,0,0,0,0,0,0,0,0,0,0],"sum_hessian":[6.7562417E3,3.3069446E3,3.449297E3,2.404882E3,9.0206256E2,1.0587108E3,2.3905862E3,1.7711306E3,6.3375146E2,7.58058E2,1.440046E2,4.571635E2,6.015473E2,1.3671699E3,1.0234163E3],"tree_param":{"num_deleted":"0","num_feature":"106","num_nodes":"15","size_leaf_vector":"1"}},{"base_weights":[1.10554494E-1,2.7578217E-1,-4.788826E-2,3.558432E-1,6.21833E-2,1.7478593E-1,-1.4653507E-1,2.9311941E-3,5.303978E-3,1.6001207E-4,3.0350464E-3,-7.914083E-5,3.1341682E-3,-5.361459E-4,-2.7049293E-3],"categories":[],"categories_nodes":[],"categories_segments":[],"categories_sizes":[],"default_left":[0,0,0,0,0,0,0,0,0,0,0,0,0,0,0],"id":59,"left_children":[1,3,5,7,9,11,13,-1,-1,-1,-1,-1,-1,-1,-1],"loss_changes":[1.7691191E2,5.6546844E1,7.581518E1,2.6185852E1,1.0059526E1,2.6842697E1,2.7532322E1,0E0,0E0,0E0,0E0,0E0,0E0,0E0,0E0],"parents":[2147483647,0,0,1,1,2,2,3,3,4,4,5,5,6,6],"right_children":[2,4,6,8,10,12,14,-1,-1,-1,-1,-1,-1,-1,-1],"split_conditions":[1.5E1,3.8E0,-2E0,2.3E1,1.17E1,-3.7E0,2.4E1,2.9311941E-3,5.303978E-3,1.6001207E-4,3.0350464E-3,-7.914083E-5,3.1341682E-3,-5.361459E-4,-2.7049293E-3],"split_indices":[51,77,77,80,66,25,51,0,0,0,0,0,0,0,0],"split_type":[0,0,0,0,0,0,0,0,0,0,0,0,0,0,0],"sum_hessian":[6.7562417E3,3.3069446E3,3.449297E3,2.404882E3,9.0206256E2,1.0587108E3,2.3905862E3,1.7711306E3,6.3375146E2,7.58058E2,1.440046E2,4.571635E2,6.015473E2,1.3671699E3,1.0234163E3],"tree_param":{"num_deleted":"0","num_feature":"106","num_nodes":"15","size_leaf_vector":"1"}},{"base_weights":[-1.0949508E-1,-2.144104E-1,1.3534527E-1,-8.634051E-2,-3.6022142E-1,-1.3570046E-1,2.059388E-1,-2.485827E-3,-4.9664604E-6,-5.099616E-3,-2.9528993E-3,-2.3070876E-3,9.153552E-4,3.2571377E-3,1.2429681E-3],"categories":[],"categories_nodes":[],"categories_segments":[],"categories_sizes":[],"default_left":[0,0,0,0,0,0,0,0,0,0,0,0,0,0,0],"id":60,"left_children":[1,3,5,7,9,11,13,-1,-1,-1,-1,-1,-1,-1,-1],"loss_changes":[1.735361E2,8.8274185E1,3.880799E1,3.5081345E1,2.1345825E1,9.075554E0,1.5687119E1,0E0,0E0,0E0,0E0,0E0,0E0,0E0,0E0],"parents":[2147483647,0,0,1,1,2,2,3,3,4,4,5,5,6,6],"right_children":[2,4,6,8,10,12,14,-1,-1,-1,-1,-1,-1,-1,-1],"split_conditions":[2E1,1.4E1,3.58E-1,7E0,7E0,2.7E1,-6.1E0,-2.485827E-3,-4.9664604E-6,-5.099616E-3,-2.9528993E-3,-2.3070876E-3,9.153552E-4,3.2571377E-3,1.2429681E-3],"split_indices":[28,80,55,29,51,28,25,0,0,0,0,0,0,0,0],"split_type":[0,0,0,0,0,0,0,0,0,0,0,0,0,0,0],"sum_hessian":[6.753533E3,4.7277803E3,2.025753E3,2.5178633E3,2.209917E3,4.183944E2,1.6073586E3,8.705864E2,1.6472767E3,6.663578E2,1.5435592E3,2.9502707E2,1.2336733E2,6.50312E2,9.570467E2],"tree_param":{"num_deleted":"0","num_feature":"106","num_nodes":"15","size_leaf_vector":"1"}},{"base_weights":[1.0949508E-1,2.1441038E-1,-1.3534527E-1,8.634051E-2,3.6022142E-1,1.3570046E-1,-2.0593879E-1,2.4858273E-3,4.966285E-6,5.0996155E-3,2.9528996E-3,2.3070874E-3,-9.15355E-4,-3.257138E-3,-1.2429679E-3],"categories":[],"categories_nodes":[],"categories_segments":[],"categories_sizes":[],"default_left":[0,0,0,0,0,0,0,0,0,0,0,0,0,0,0],"id":61,"left_children":[1,3,5,7,9,11,13,-1,-1,-1,-1,-1,-1,-1,-1],"loss_changes":[1.7353609E2,8.827414E1,3.8807987E1,3.5081352E1,2.1345795E1,9.07555E0,1.5687126E1,0E0,0E0,0E0,0E0,0E0,0E0,0E0,0E0],"parents":[2147483647,0,0,1,1,2,2,3,3,4,4,5,5,6,6],"right_children":[2,4,6,8,10,12,14,-1,-1,-1,-1,-1,-1,-1,-1],"split_conditions":[2E1,1.4E1,3.58E-1,7E0,7E0,2.7E1,-6.1E0,2.4858273E-3,4.966285E-6,5.0996155E-3,2.9528996E-3,2.3070874E-3,-9.15355E-4,-3.257138E-3,-1.2429679E-3],"split_indices":[28,80,55,29,51,28,25,0,0,0,0,0,0,0,0],"split_type":[0,0,0,0,0,0,0,0,0,0,0,0,0,0,0],"sum_hessian":[6.753533E3,4.7277803E3,2.025753E3,2.5178633E3,2.209917E3,4.1839438E2,1.6073586E3,8.705864E2,1.6472769E3,6.663578E2,1.5435593E3,2.9502707E2,1.23367325E2,6.50312E2,9.570467E2],"tree_param":{"num_deleted":"0","num_feature":"106","num_nodes":"15","size_leaf_vector":"1"}},{"base_weights":[-1.0844655E-1,-2.709239E-1,4.7256194E-2,-3.3529925E-1,-1.1821925E-2,-9.140024E-2,2.0207942E-1,-2.7624841E-3,-5.2270168E-3,2.6960566E-4,-2.8029568E-3,1.1034445E-3,-1.9936569E-3,1.206308E-3,3.172017E-3],"categories":[],"categories_nodes":[],"categories_segments":[],"categories_sizes":[],"default_left":[0,0,0,0,0,0,0,0,0,0,0,0,0,0,0],"id":62,"left_children":[1,3,5,7,9,11,13,-1,-1,-1,-1,-1,-1,-1,-1],"loss_changes":[1.708196E2,5.5108414E1,7.4050415E1,2.9143005E1,6.8649044E0,3.9663715E1,1.5242012E1,0E0,0E0,0E0,0E0,0E0,0E0,0E0,0E0],"parents":[2147483647,0,0,1,1,2,2,3,3,4,4,5,5,6,6],"right_children":[2,4,6,8,10,12,14,-1,-1,-1,-1,-1,-1,-1,-1],"split_conditions":[1.5E1,4.9E0,6E-1,2.3E1,1.17E1,-4.8E0,2.4E1,-2.7624841E-3,-5.2270168E-3,2.6960566E-4,-2.8029568E-3,1.1034445E-3,-1.9936569E-3,1.206308E-3,3.172017E-3],"split_indices":[51,77,77,80,66,25,51,0,0,0,0,0,0,0,0],"split_type":[0,0,0,0,0,0,0,0,0,0,0,0,0,0,0],"sum_hessian":[6.7507446E3,3.3031426E3,3.447602E3,2.6455476E3,6.5759515E2,1.8189755E3,1.6286267E3,2.013549E3,6.319986E2,5.7537823E2,8.221692E1,6.340901E2,1.1848854E3,9.5500903E2,6.736176E2],"tree_param":{"num_deleted":"0","num_feature":"106","num_nodes":"15","size_leaf_vector":"1"}},{"base_weights":[1.0844654E-1,2.7092388E-1,-4.72562E-2,3.3529922E-1,1.18218865E-2,9.1400236E-2,-2.0207942E-1,2.762484E-3,5.2270168E-3,-2.6960604E-4,2.8029566E-3,-1.1034447E-3,1.993657E-3,-1.2063083E-3,-3.172017E-3],"categories":[],"categories_nodes":[],"categories_segments":[],"categories_sizes":[],"default_left":[0,0,0,0,0,0,0,0,0,0,0,0,0,0,0],"id":63,"left_children":[1,3,5,7,9,11,13,-1,-1,-1,-1,-1,-1,-1,-1],"loss_changes":[1.708196E2,5.51084E1,7.405042E1,2.9143005E1,6.8649035E0,3.9663727E1,1.5242004E1,0E0,0E0,0E0,0E0,0E0,0E0,0E0,0E0],"parents":[2147483647,0,0,1,1,2,2,3,3,4,4,5,5,6,6],"right_children":[2,4,6,8,10,12,14,-1,-1,-1,-1,-1,-1,-1,-1],"split_conditions":[1.5E1,4.9E0,6E-1,2.3E1,1.17E1,-4.8E0,2.4E1,2.762484E-3,5.2270168E-3,-2.6960604E-4,2.8029566E-3,-1.1034447E-3,1.993657E-3,-1.2063083E-3,-3.172017E-3],"split_indices":[51,77,77,80,66,25,51,0,0,0,0,0,0,0,0],"split_type":[0,0,0,0,0,0,0,0,0,0,0,0,0,0,0],"sum_hessian":[6.7507446E3,3.3031426E3,3.447602E3,2.6455476E3,6.5759515E2,1.8189755E3,1.6286267E3,2.013549E3,6.319986E2,5.7537823E2,8.221692E1,6.3409E2,1.1848854E3,9.550091E2,6.736176E2],"tree_param":{"num_deleted":"0","num_feature":"106","num_nodes":"15","size_leaf_vector":"1"}},{"base_weights":[-1.0740751E-1,-2.683811E-1,4.6795104E-2,-3.321995E-1,-1.1707794E-2,-9.050436E-2,2.0011203E-1,-2.7361691E-3,-5.183323E-3,4.781465E-4,-1.8327606E-3,1.0925366E-3,-1.9742206E-3,1.1942952E-3,3.1421233E-3],"categories":[],"categories_nodes":[],"categories_segments":[],"categories_sizes":[],"default_left":[0,0,0,0,0,0,0,0,0,0,0,0,0,0,0],"id":64,"left_children":[1,3,5,7,9,11,13,-1,-1,-1,-1,-1,-1,-1,-1],"loss_changes":[1.6753964E2,5.4086884E1,7.25963E1,2.8694885E1,6.7343097E0,3.8884476E1,1.4960869E1,0E0,0E0,0E0,0E0,0E0,0E0,0E0,0E0],"parents":[2147483647,0,0,1,1,2,2,3,3,4,4,5,5,6,6],"right_children":[2,4,6,8,10,12,14,-1,-1,-1,-1,-1,-1,-1,-1],"split_conditions":[1.5E1,4.9E0,6E-1,2.3E1,7.07E-1,-4.8E0,2.4E1,-2.7361691E-3,-5.183323E-3,4.781465E-4,-1.8327606E-3,1.0925366E-3,-1.9742206E-3,1.1942952E-3,3.1421233E-3],"split_indices":[51,77,77,80,3,25,51,0,0,0,0,0,0,0,0],"split_type":[0,0,0,0,0,0,0,0,0,0,0,0,0,0,0],"sum_hessian":[6.7479883E3,3.3011477E3,3.4468403E3,2.643566E3,6.575819E2,1.8186233E3,1.6282169E3,2.0125994E3,6.3096655E2,4.8874292E2,1.6883902E2,6.34027E2,1.1845963E3,9.5497955E2,6.732374E2],"tree_param":{"num_deleted":"0","num_feature":"106","num_nodes":"15","size_leaf_vector":"1"}},{"base_weights":[1.0740751E-1,2.683811E-1,-4.6795096E-2,3.3219948E-1,1.1707794E-2,9.050438E-2,-2.0011203E-1,2.7361687E-3,5.183323E-3,-4.781465E-4,1.8327609E-3,-1.0925365E-3,1.9742206E-3,-1.1942952E-3,-3.1421233E-3],"categories":[],"categories_nodes":[],"categories_segments":[],"categories_sizes":[],"default_left":[0,0,0,0,0,0,0,0,0,0,0,0,0,0,0],"id":65,"left_children":[1,3,5,7,9,11,13,-1,-1,-1,-1,-1,-1,-1,-1],"loss_changes":[1.6753963E2,5.4086853E1,7.259629E1,2.8694916E1,6.73431E0,3.888448E1,1.4960884E1,0E0,0E0,0E0,0E0,0E0,0E0,0E0,0E0],"parents":[2147483647,0,0,1,1,2,2,3,3,4,4,5,5,6,6],"right_children":[2,4,6,8,10,12,14,-1,-1,-1,-1,-1,-1,-1,-1],"split_conditions":[1.5E1,4.9E0,6E-1,2.3E1,7.07E-1,-4.8E0,2.4E1,2.7361687E-3,5.183323E-3,-4.781465E-4,1.8327609E-3,-1.0925365E-3,1.9742206E-3,-1.1942952E-3,-3.1421233E-3],"split_indices":[51,77,77,80,3,25,51,0,0,0,0,0,0,0,0],"split_type":[0,0,0,0,0,0,0,0,0,0,0,0,0,0,0],"sum_hessian":[6.747988E3,3.3011477E3,3.4468403E3,2.643566E3,6.575819E2,1.8186233E3,1.6282169E3,2.0125994E3,6.3096655E2,4.8874292E2,1.6883902E2,6.34027E2,1.1845963E3,9.549795E2,6.7323737E2],"tree_param":{"num_deleted":"0","num_feature":"106","num_nodes":"15","size_leaf_vector":"1"}},{"base_weights":[-1.0637947E-1,-2.0873158E-1,1.3233037E-1,-1.24845825E-1,-4.2322984E-1,-1.3349004E-1,2.0158991E-1,-2.7916303E-3,-3.747208E-4,-3.6397658E-3,-5.543447E-3,-2.2648247E-3,8.8837295E-4,3.1847986E-3,1.2200695E-3],"categories":[],"categories_nodes":[],"categories_segments":[],"categories_sizes":[],"default_left":[0,0,0,0,0,0,0,0,0,0,0,0,0,0,0],"id":66,"left_children":[1,3,5,7,9,11,13,-1,-1,-1,-1,-1,-1,-1,-1],"loss_changes":[1.6485281E2,8.491237E1,3.7310627E1,4.57778E1,1.010849E1,8.686676E0,1.4909584E1,0E0,0E0,0E0,0E0,0E0,0E0,0E0,0E0],"parents":[2147483647,0,0,1,1,2,2,3,3,4,4,5,5,6,6],"right_children":[2,4,6,8,10,12,14,-1,-1,-1,-1,-1,-1,-1,-1],"split_conditions":[2E1,2E1,3.58E-1,7E0,3.7E1,2.7E1,-6.1E0,-2.7916303E-3,-3.747208E-4,-3.6397658E-3,-5.543447E-3,-2.2648247E-3,8.8837295E-4,3.1847986E-3,1.2200695E-3],"split_indices":[28,80,55,27,54,28,25,0,0,0,0,0,0,0,0],"split_type":[0,0,0,0,0,0,0,0,0,0,0,0,0,0,0],"sum_hessian":[6.745157E3,4.7210347E3,2.0241222E3,3.3949307E3,1.3261041E3,4.1818542E2,1.6059368E3,1.2265084E3,2.1684224E3,9.1594684E2,4.1015726E2,2.9484323E2,1.23342186E2,6.492819E2,9.5665485E2],"tree_param":{"num_deleted":"0","num_feature":"106","num_nodes":"15","size_leaf_vector":"1"}},{"base_weights":[1.06379464E-1,2.0873158E-1,-1.3233039E-1,1.2484582E-1,4.2322984E-1,1.3349E-1,-2.0158993E-1,2.7916299E-3,3.7472087E-4,3.6397662E-3,5.543447E-3,2.2648238E-3,-8.8837295E-4,-3.1847986E-3,-1.2200697E-3],"categories":[],"categories_nodes":[],"categories_segments":[],"categories_sizes":[],"default_left":[0,0,0,0,0,0,0,0,0,0,0,0,0,0,0],"id":67,"left_children":[1,3,5,7,9,11,13,-1,-1,-1,-1,-1,-1,-1,-1],"loss_changes":[1.6485284E2,8.49124E1,3.731062E1,4.577779E1,1.0108459E1,8.686674E0,1.4909584E1,0E0,0E0,0E0,0E0,0E0,0E0,0E0,0E0],"parents":[2147483647,0,0,1,1,2,2,3,3,4,4,5,5,6,6],"right_children":[2,4,6,8,10,12,14,-1,-1,-1,-1,-1,-1,-1,-1],"split_conditions":[2E1,2E1,3.58E-1,7E0,3.7E1,2.7E1,-6.1E0,2.7916299E-3,3.7472087E-4,3.6397662E-3,5.543447E-3,2.2648238E-3,-8.8837295E-4,-3.1847986E-3,-1.2200697E-3],"split_indices":[28,80,55,27,54,28,25,0,0,0,0,0,0,0,0],"split_type":[0,0,0,0,0,0,0,0,0,0,0,0,0,0,0],"sum_hessian":[6.745157E3,4.7210347E3,2.0241222E3,3.3949307E3,1.326104E3,4.1818542E2,1.6059368E3,1.2265084E3,2.168422E3,9.159468E2,4.1015726E2,2.9484323E2,1.23342186E2,6.492819E2,9.5665485E2],"tree_param":{"num_deleted":"0","num_feature":"106","num_nodes":"15","size_leaf_vector":"1"}},{"base_weights":[-1.05361976E-1,-2.6372322E-1,4.6237677E-2,-3.41396E-1,-5.7167802E-2,-1.6882831E-1,1.4146413E-1,-2.8094482E-3,-5.1047085E-3,-1.1955058E-4,-2.9365486E-3,6.7491164E-5,-3.0232014E-3,5.298188E-4,2.5971397E-3],"categories":[],"categories_nodes":[],"categories_segments":[],"categories_sizes":[],"default_left":[0,0,0,0,0,0,0,0,0,0,0,0,0,0,0],"id":68,"left_children":[1,3,5,7,9,11,13,-1,-1,-1,-1,-1,-1,-1,-1],"loss_changes":[1.619024E2,5.2896835E1,7.059907E1,2.4352905E1,9.646609E0,2.4800213E1,2.4982723E1,0E0,0E0,0E0,0E0,0E0,0E0,0E0,0E0],"parents":[2147483647,0,0,1,1,2,2,3,3,4,4,5,5,6,6],"right_children":[2,4,6,8,10,12,14,-1,-1,-1,-1,-1,-1,-1,-1],"split_conditions":[1.5E1,3.8E0,-2E0,2.3E1,1.17E1,-3.7E0,2.4E1,-2.8094482E-3,-5.1047085E-3,-1.1955058E-4,-2.9365486E-3,6.7491164E-5,-3.0232014E-3,5.298188E-4,2.5971397E-3],"split_indices":[51,77,77,80,66,25,51,0,0,0,0,0,0,0,0],"split_type":[0,0,0,0,0,0,0,0,0,0,0,0,0,0,0],"sum_hessian":[6.7423154E3,3.2972563E3,3.445059E3,2.3957205E3,9.0153577E2,1.0570259E3,2.3880332E3,1.7667107E3,6.290098E2,7.5772144E2,1.4381432E2,4.569561E2,6.000698E2,1.366773E3,1.0212603E3],"tree_param":{"num_deleted":"0","num_feature":"106","num_nodes":"15","size_leaf_vector":"1"}},{"base_weights":[1.0536199E-1,2.6372322E-1,-4.623765E-2,3.41396E-1,5.716779E-2,1.6882834E-1,-1.414641E-1,2.8094482E-3,5.1047085E-3,1.1955042E-4,2.9365486E-3,-6.7490866E-5,3.0232018E-3,-5.2981864E-4,-2.5971394E-3],"categories":[],"categories_nodes":[],"categories_segments":[],"categories_sizes":[],"default_left":[0,0,0,0,0,0,0,0,0,0,0,0,0,0,0],"id":69,"left_children":[1,3,5,7,9,11,13,-1,-1,-1,-1,-1,-1,-1,-1],"loss_changes":[1.6190239E2,5.2896835E1,7.059907E1,2.4352905E1,9.646611E0,2.480021E1,2.4982716E1,0E0,0E0,0E0,0E0,0E0,0E0,0E0,0E0],"parents":[2147483647,0,0,1,1,2,2,3,3,4,4,5,5,6,6],"right_children":[2,4,6,8,10,12,14,-1,-1,-1,-1,-1,-1,-1,-1],"split_conditions":[1.5E1,3.8E0,-2E0,2.3E1,1.17E1,-3.7E0,2.4E1,2.8094482E-3,5.1047085E-3,1.1955042E-4,2.9365486E-3,-6.7490866E-5,3.0232018E-3,-5.2981864E-4,-2.5971394E-3],"split_indices":[51,77,77,80,66,25,51,0,0,0,0,0,0,0,0],"split_type":[0,0,0,0,0,0,0,0,0,0,0,0,0,0,0],"sum_hessian":[6.7423154E3,3.2972563E3,3.445059E3,2.3957205E3,9.0153577E2,1.0570259E3,2.3880332E3,1.7667107E3,6.2900977E2,7.5772144E2,1.4381432E2,4.569561E2,6.000698E2,1.3667728E3,1.0212603E3],"tree_param":{"num_deleted":"0","num_feature":"106","num_nodes":"15","size_leaf_vector":"1"}},{"base_weights":[-1.0435665E-1,9.673854E-2,-2.2171359E-1,-2.8828032E-2,2.3844196E-1,-3.1734034E-1,-2.497078E-2,1.1639801E-3,-1.550508E-3,3.768535E-3,1.8610157E-3,-4.289388E-3,-2.3328809E-3,7.8497466E-4,-1.5440136E-3],"categories":[],"categories_nodes":[],"categories_segments":[],"categories_sizes":[],"default_left":[0,0,0,0,0,0,0,0,0,0,0,0,0,0,0],"id":70,"left_children":[1,3,5,7,9,11,13,-1,-1,-1,-1,-1,-1,-1,-1],"loss_changes":[1.590929E2,4.421708E1,8.00766E1,2.418236E1,8.38736E0,2.676773E1,1.8671623E1,0E0,0E0,0E0,0E0,0E0,0E0,0E0,0E0],"parents":[2147483647,0,0,1,1,2,2,3,3,4,4,5,5,6,6],"right_children":[2,4,6,8,10,12,14,-1,-1,-1,-1,-1,-1,-1,-1],"split_conditions":[4.59E-1,5.19E-1,2.9E0,-4.8E0,-7E0,-1.9E0,3.6E0,1.1639801E-3,-1.550508E-3,3.768535E-3,1.8610157E-3,-4.289388E-3,-2.3328809E-3,7.8497466E-4,-1.5440136E-3],"split_indices":[3,55,77,25,25,77,25,0,0,0,0,0,0,0,0],"split_type":[0,0,0,0,0,0,0,0,0,0,0,0,0,0,0],"sum_hessian":[6.7393394E3,2.4836665E3,4.255673E3,1.3172333E3,1.1664333E3,2.8633364E3,1.3923365E3,6.125451E2,7.046881E2,3.1835614E2,8.480772E2,1.2283368E3,1.6349995E3,7.739921E2,6.183444E2],"tree_param":{"num_deleted":"0","num_feature":"106","num_nodes":"15","size_leaf_vector":"1"}},{"base_weights":[1.0435665E-1,-9.673854E-2,2.2171359E-1,2.8828034E-2,-2.3844196E-1,3.1734034E-1,2.497079E-2,-1.16398E-3,1.5505078E-3,-3.7685349E-3,-1.8610159E-3,4.289388E-3,2.3328809E-3,-7.849746E-4,1.5440137E-3],"categories":[],"categories_nodes":[],"categories_segments":[],"categories_sizes":[],"default_left":[0,0,0,0,0,0,0,0,0,0,0,0,0,0,0],"id":71,"left_children":[1,3,5,7,9,11,13,-1,-1,-1,-1,-1,-1,-1,-1],"loss_changes":[1.590929E2,4.4217075E1,8.00766E1,2.4182356E1,8.38736E0,2.67677E1,1.8671623E1,0E0,0E0,0E0,0E0,0E0,0E0,0E0,0E0],"parents":[2147483647,0,0,1,1,2,2,3,3,4,4,5,5,6,6],"right_children":[2,4,6,8,10,12,14,-1,-1,-1,-1,-1,-1,-1,-1],"split_conditions":[4.59E-1,5.19E-1,2.9E0,-4.8E0,-7E0,-1.9E0,3.6E0,-1.16398E-3,1.5505078E-3,-3.7685349E-3,-1.8610159E-3,4.289388E-3,2.3328809E-3,-7.849746E-4,1.5440137E-3],"split_indices":[3,55,77,25,25,77,25,0,0,0,0,0,0,0,0],"split_type":[0,0,0,0,0,0,0,0,0,0,0,0,0,0,0],"sum_hessian":[6.7393394E3,2.4836665E3,4.255673E3,1.3172333E3,1.1664333E3,2.8633364E3,1.3923365E3,6.125451E2,7.046881E2,3.183561E2,8.480772E2,1.2283368E3,1.6349995E3,7.739921E2,6.183444E2],"tree_param":{"num_deleted":"0","num_feature":"106","num_nodes":"15","size_leaf_vector":"1"}},{"base_weights":[-1.033603E-1,-2.5917414E-1,4.5698337E-2,-3.2151344E-1,-9.097808E-3,-8.778197E-2,1.9472463E-1,-2.6467878E-3,-5.028893E-3,2.8915078E-4,-2.7247479E-3,1.0468238E-3,-1.9086293E-3,1.1720863E-3,3.0455496E-3],"categories":[],"categories_nodes":[],"categories_segments":[],"categories_sizes":[],"default_left":[0,0,0,0,0,0,0,0,0,0,0,0,0,0,0],"id":72,"left_children":[1,3,5,7,9,11,13,-1,-1,-1,-1,-1,-1,-1,-1],"loss_changes":[1.5648866E2,5.1351776E1,6.852836E1,2.70484E1,6.599055E0,3.6078648E1,1.3821239E1,0E0,0E0,0E0,0E0,0E0,0E0,0E0,0E0],"parents":[2147483647,0,0,1,1,2,2,3,3,4,4,5,5,6,6],"right_children":[2,4,6,8,10,12,14,-1,-1,-1,-1,-1,-1,-1,-1],"split_conditions":[1.5E1,4.9E0,6E-1,2.3E1,1.17E1,-4.8E0,2.4E1,-2.6467878E-3,-5.028893E-3,2.8915078E-4,-2.7247479E-3,1.0468238E-3,-1.9086293E-3,1.1720863E-3,3.0455496E-3],"split_indices":[51,77,77,80,66,25,51,0,0,0,0,0,0,0,0],"split_type":[0,0,0,0,0,0,0,0,0,0,0,0,0,0,0],"sum_hessian":[6.736315E3,3.2931667E3,3.4431484E3,2.6358206E3,6.5734607E2,1.8165271E3,1.6266213E3,2.0088123E3,6.270083E2,5.7521606E2,8.2130035E1,6.33567E2,1.1829601E3,9.548059E2,6.7181537E2],"tree_param":{"num_deleted":"0","num_feature":"106","num_nodes":"15","size_leaf_vector":"1"}},{"base_weights":[1.0336031E-1,2.5917414E-1,-4.569833E-2,3.2151344E-1,9.097778E-3,8.7781966E-2,-1.947246E-1,2.6467878E-3,5.028892E-3,-2.8915107E-4,2.7247476E-3,-1.0468238E-3,1.9086292E-3,-1.172086E-3,-3.0455494E-3],"categories":[],"categories_nodes":[],"categories_segments":[],"categories_sizes":[],"default_left":[0,0,0,0,0,0,0,0,0,0,0,0,0,0,0],"id":73,"left_children":[1,3,5,7,9,11,13,-1,-1,-1,-1,-1,-1,-1,-1],"loss_changes":[1.5648868E2,5.135179E1,6.852834E1,2.704837E1,6.5990553E0,3.6078644E1,1.3821228E1,0E0,0E0,0E0,0E0,0E0,0E0,0E0,0E0],"parents":[2147483647,0,0,1,1,2,2,3,3,4,4,5,5,6,6],"right_children":[2,4,6,8,10,12,14,-1,-1,-1,-1,-1,-1,-1,-1],"split_conditions":[1.5E1,4.9E0,6E-1,2.3E1,1.17E1,-4.8E0,2.4E1,2.6467878E-3,5.028892E-3,-2.8915107E-4,2.7247476E-3,-1.0468238E-3,1.9086292E-3,-1.172086E-3,-3.0455494E-3],"split_indices":[51,77,77,80,66,25,51,0,0,0,0,0,0,0,0],"split_type":[0,0,0,0,0,0,0,0,0,0,0,0,0,0,0],"sum_hessian":[6.736315E3,3.2931667E3,3.4431484E3,2.6358206E3,6.5734607E2,1.8165271E3,1.6266213E3,2.0088123E3,6.270083E2,5.7521606E2,8.213003E1,6.33567E2,1.1829601E3,9.548059E2,6.7181537E2],"tree_param":{"num_deleted":"0","num_feature":"106","num_nodes":"15","size_leaf_vector":"1"}},{"base_weights":[-1.0237414E-1,-2.0137627E-1,1.2832682E-1,-1.20022506E-1,-4.101655E-1,-1.3057612E-1,1.9582348E-1,-2.690338E-3,-3.3371436E-4,-3.5144454E-3,-5.402725E-3,-2.2122671E-3,8.601537E-4,1.1083684E-3,2.9927124E-3],"categories":[],"categories_nodes":[],"categories_segments":[],"categories_sizes":[],"default_left":[0,0,0,0,0,0,0,0,0,0,0,0,0,0,0],"id":74,"left_children":[1,3,5,7,9,11,13,-1,-1,-1,-1,-1,-1,-1,-1],"loss_changes":[1.5383646E2,7.999687E1,3.5373524E1,4.3796127E1,9.902145E0,8.243578E0,1.4076355E1,0E0,0E0,0E0,0E0,0E0,0E0,0E0,0E0],"parents":[2147483647,0,0,1,1,2,2,3,3,4,4,5,5,6,6],"right_children":[2,4,6,8,10,12,14,-1,-1,-1,-1,-1,-1,-1,-1],"split_conditions":[2E1,2E1,3.58E-1,8E0,3.7E1,2.7E1,5.69E-1,-2.690338E-3,-3.3371436E-4,-3.5144454E-3,-5.402725E-3,-2.2122671E-3,8.601537E-4,1.1083684E-3,2.9927124E-3],"split_indices":[28,80,55,51,54,28,55,0,0,0,0,0,0,0,0],"split_type":[0,0,0,0,0,0,0,0,0,0,0,0,0,0,0],"sum_hessian":[6.733298E3,4.7115347E3,2.0217631E3,3.3915913E3,1.3199434E3,4.1789014E2,1.6038729E3,1.2462855E3,2.1453057E3,9.120232E2,4.079201E2,2.945782E2,1.2331194E2,8.8164026E2,7.222327E2],"tree_param":{"num_deleted":"0","num_feature":"106","num_nodes":"15","size_leaf_vector":"1"}},{"base_weights":[1.0237413E-1,2.0137627E-1,-1.2832683E-1,1.20022506E-1,4.1016546E-1,1.305761E-1,-1.9582349E-1,2.690338E-3,3.3371442E-4,3.5144454E-3,5.402725E-3,2.2122664E-3,-8.601529E-4,-1.1083684E-3,-2.9927124E-3],"categories":[],"categories_nodes":[],"categories_segments":[],"categories_sizes":[],"default_left":[0,0,0,0,0,0,0,0,0,0,0,0,0,0,0],"id":75,"left_children":[1,3,5,7,9,11,13,-1,-1,-1,-1,-1,-1,-1,-1],"loss_changes":[1.5383644E2,7.999686E1,3.537352E1,4.379612E1,9.902161E0,8.243572E0,1.4076363E1,0E0,0E0,0E0,0E0,0E0,0E0,0E0,0E0],"parents":[2147483647,0,0,1,1,2,2,3,3,4,4,5,5,6,6],"right_children":[2,4,6,8,10,12,14,-1,-1,-1,-1,-1,-1,-1,-1],"split_conditions":[2E1,2E1,3.58E-1,8E0,3.7E1,2.7E1,5.69E-1,2.690338E-3,3.3371442E-4,3.5144454E-3,5.402725E-3,2.2122664E-3,-8.601529E-4,-1.1083684E-3,-2.9927124E-3],"split_indices":[28,80,55,51,54,28,55,0,0,0,0,0,0,0,0],"split_type":[0,0,0,0,0,0,0,0,0,0,0,0,0,0,0],"sum_hessian":[6.7332974E3,4.7115347E3,2.0217631E3,3.3915913E3,1.3199434E3,4.1789014E2,1.6038729E3,1.2462855E3,2.1453057E3,9.120232E2,4.079201E2,2.945782E2,1.2331195E2,8.8164026E2,7.2223267E2],"tree_param":{"num_deleted":"0","num_feature":"106","num_nodes":"15","size_leaf_vector":"1"}},{"base_weights":[-1.0139749E-1,-2.5467855E-1,4.5131706E-2,-3.163661E-1,-7.546724E-3,-1.63547E-1,1.3747744E-1,-2.604036E-3,-4.953834E-3,3.0108987E-4,-2.6857452E-3,6.107726E-5,-2.9279958E-3,5.212262E-4,2.517135E-3],"categories":[],"categories_nodes":[],"categories_segments":[],"categories_sizes":[],"default_left":[0,0,0,0,0,0,0,0,0,0,0,0,0,0,0],"id":76,"left_children":[1,3,5,7,9,11,13,-1,-1,-1,-1,-1,-1,-1,-1],"loss_changes":[1.511975E2,5.015355E1,6.635753E1,2.624701E1,6.477777E0,2.3168064E1,2.3260002E1,0E0,0E0,0E0,0E0,0E0,0E0,0E0,0E0],"parents":[2147483647,0,0,1,1,2,2,3,3,4,4,5,5,6,6],"right_children":[2,4,6,8,10,12,14,-1,-1,-1,-1,-1,-1,-1,-1],"split_conditions":[1.5E1,4.9E0,-2E0,2.3E1,1.17E1,-3.7E0,2.4E1,-2.604036E-3,-4.953834E-3,3.0108987E-4,-2.6857452E-3,6.107726E-5,-2.9279958E-3,5.212262E-4,2.517135E-3],"split_indices":[51,77,77,80,66,25,51,0,0,0,0,0,0,0,0],"split_type":[0,0,0,0,0,0,0,0,0,0,0,0,0,0,0],"sum_hessian":[6.7302993E3,3.289004E3,3.4412952E3,2.631792E3,6.572121E2,1.055455E3,2.38584E3,2.0068774E3,6.249145E2,5.75129E2,8.208311E1,4.568086E2,5.986463E2,1.3663718E3,1.01946826E3],"tree_param":{"num_deleted":"0","num_feature":"106","num_nodes":"15","size_leaf_vector":"1"}},{"base_weights":[1.01397485E-1,2.5467855E-1,-4.513171E-2,3.163661E-1,7.5467112E-3,1.6354696E-1,-1.3747744E-1,2.604036E-3,4.9538338E-3,-3.0109007E-4,2.6857457E-3,-6.107772E-5,2.9279958E-3,-5.2122626E-4,-2.517135E-3],"categories":[],"categories_nodes":[],"categories_segments":[],"categories_sizes":[],"default_left":[0,0,0,0,0,0,0,0,0,0,0,0,0,0,0],"id":77,"left_children":[1,3,5,7,9,11,13,-1,-1,-1,-1,-1,-1,-1,-1],"loss_changes":[1.511975E2,5.015355E1,6.635752E1,2.624701E1,6.4777794E0,2.3168072E1,2.3260002E1,0E0,0E0,0E0,0E0,0E0,0E0,0E0,0E0],"parents":[2147483647,0,0,1,1,2,2,3,3,4,4,5,5,6,6],"right_children":[2,4,6,8,10,12,14,-1,-1,-1,-1,-1,-1,-1,-1],"split_conditions":[1.5E1,4.9E0,-2E0,2.3E1,1.17E1,-3.7E0,2.4E1,2.604036E-3,4.9538338E-3,-3.0109007E-4,2.6857457E-3,-6.107772E-5,2.9279958E-3,-5.2122626E-4,-2.517135E-3],